744 300
업 0.130888 0.16870001 0.24574736 0.36321762 0.0932985 -0.45729393 0.28430602 0.9991837 0.05453758 -0.109814815 0.21455382 -0.25891823 -0.40131587 0.15174511 -0.5535907 -0.20541237 0.21781394 0.19381021 -0.3876299 -0.2650429 0.16986561 -0.021993669 0.25666448 -0.27176288 0.36847383 0.07645641 -0.55348563 0.23863085 0.061656915 -0.34142688 -0.3296851 -0.18895954 0.5357763 -0.34120706 -0.21068417 0.11578502 0.009265729 -0.4182375 -0.113847844 0.09269708 -0.49057096 -0.07342941 -0.1765464 -0.26096407 0.093286484 -0.05229613 -0.12151764 0.35037616 -0.2117391 0.4890706 -0.090290904 0.035999198 -0.32715622 0.20074497 0.2999496 0.089779235 0.3362483 -0.17197253 0.26033998 0.19330157 -0.19262046 -0.22835433 -0.45326552 -0.17071287 -0.32242507 0.5090182 0.20263937 0.44392526 -0.08011927 0.026255691 0.10170835 -0.0071934755 0.3836637 -0.6809966 0.051771957 0.1518373 -0.030662123 0.012205389 -0.04122491 0.03692356 -0.3749906 -0.10486646 0.15150511 0.5654774 -0.09380163 0.315454 0.045541923 -0.40664157 0.25906557 0.2381291 0.5200659 -0.30364686 0.31513825 -0.12378652 0.43856812 0.5268765 -0.3227801 0.02037221 -0.06441361 0.4199816 -0.22122166 0.18245155 0.26636773 0.460624 0.20586222 -0.40691018 0.23600763 -0.033925164 -0.48246646 -0.12604761 -0.12255196 -0.19681396 -0.24553275 0.1932181 0.38882923 0.33721092 0.12865877 0.17724693 0.19358031 -0.03528649 0.28430808 0.13062395 0.49612805 -0.36707988 0.16500036 0.58311325 -0.059369646 -0.3229238 -0.09243432 0.53603977 0.32411957 0.07820488 0.10871971 -0.5336261 0.16887994 0.080821775 0.12692606 -0.03984423 -0.096309245 -0.18418482 0.13077231 -0.40532556 -0.1736002 -0.12829731 0.0939759 0.18661785 0.12948498 -0.42724794 0.18521376 -0.1089999 0.415828 -1.0512564 -0.29392415 -0.24772494 0.15061726 0.3870276 0.16661757 0.06061864 -0.040237736 0.1889386 -0.053944305 0.07722289 -0.32109436 0.18975143 -0.17360348 0.13743463 0.18020248 -0.39662582 0.33532682 0.6057597 -0.21912529 -0.5571589 0.54519415 0.33245486 -0.044479683 0.061481114 -0.2868966 -0.37262595 0.0143815335 -0.23468246 -0.4750307 0.33292395 -0.019978177 -0.23903318 -0.07158236 0.01260104 0.13402952 -0.21155731 0.04691871 -0.5780904 -0.08452329 -0.01144513 -0.030954907 -0.2384618 0.013285683 0.017843587 0.19684605 -0.04901707 -0.18953511 -0.19064699 -0.032379303 -0.15973595 -0.22077996 -0.32562414 0.25556386 0.10737466 -0.10716804 0.20959884 -0.2708869 -0.24242449 -0.10773102 -0.2997554 -0.097968385 -0.011849122 0.5842478 -0.16689329 -0.0855675 -0.37020162 -0.3294081 -0.26305944 0.14303549 -0.27787444 -0.2598833 -0.3942827 0.12273596 -0.20314305 0.2952941 0.008216754 -0.27242678 0.0413193 0.12931304 -0.14977081 -0.39619792 0.46281382 -0.48583618 -0.062836476 0.4364804 -0.076830745 -0.22898962 -0.40935844 0.2120495 0.11397413 -0.14836724 0.26800227 0.19788852 0.00030831332 -0.25439978 -0.09409028 0.07447127 0.059095994 0.028877204 0.27057135 -0.12842293 -0.3846208 -0.66747695 -0.16914585 0.38857532 -0.2041152 -0.4602689 0.0063634827 0.37285152 0.09933447 0.29699668 -0.40739048 -0.13306758 0.27428034 0.26114407 0.1948455 -0.3761639 0.37171865 0.050159533 0.17038521 0.27867064 0.10235816 0.2381794 0.019458966 0.7776198 0.028770126 -0.23922949 -0.10751203 0.1542928 -0.2609017 -0.206997 0.3046506 -0.012769075 0.016535709 -0.48729205 -0.26524937 0.38432696 -0.1380934 -0.03828027 0.31084543 0.5717326 -0.0497488 0.37523907 0.33627918 0.079538554 -0.16485144 0.33732182 0.06278698
중 0.07198321 0.40634412 -0.22099246 -0.05804899 -0.013122966 0.19589475 0.20741217 0.52711535 -0.18384574 -0.16176908 -0.12540433 0.080297425 0.13076359 -0.19883463 0.19286266 0.123942785 0.2394737 0.029680286 -0.5281768 0.19695184 0.14768161 -0.29018423 0.062558085 -0.19129583 -0.15472443 0.05556257 -0.069859356 0.081453584 0.226947 -0.3170865 -0.17745745 -0.15519552 0.04613142 0.042045776 0.0890564 0.31508687 0.017339738 0.28115457 -0.40080133 0.17305034 -0.28011033 0.20319723 0.017110458 -0.106284305 0.15474671 -0.00831822 -0.025047328 0.19196244 -0.078944646 0.36925268 -0.18561397 -0.24223708 0.14987807 0.10580741 -0.09674093 0.27171633 0.039850283 -0.14007686 0.2054387 -0.25730294 -0.05522587 0.3507988 -0.16738121 -0.19520538 0.008632216 0.041463543 0.014848372 0.28381774 0.1662233 -0.25179303 0.038160976 0.31507683 0.0053916955 -0.12561421 0.0302508 0.079542756 -0.49603346 0.065296665 -0.26727822 0.3649384 -0.105456464 0.086659595 0.21132177 0.21749885 -0.08847851 -0.0512119 -0.0958983 -0.04282064 0.26321942 0.06364124 -0.07796744 -0.023606135 0.12762454 0.093693815 0.15664646 0.6109778 0.27231964 0.009321359 -0.2490307 0.18672629 -0.12880914 -0.12583938 -0.31044662 0.28272313 0.011011178 -0.15681976 0.08196599 0.18853709 -0.41758895 -0.0684778 -0.074459046 -0.11639879 -0.21749523 0.073069416 -0.046210468 -0.03084114 0.08783026 -0.08262325 -0.07928669 -0.23872562 0.10947935 0.00890107 0.48233396 0.2648933 -0.20643333 -0.088523835 0.3870492 -0.20460048 -0.26659268 -0.18838021 -0.14807555 0.1559828 0.2255647 -0.2330661 -0.051650457 0.16693218 -0.13962868 -0.21128374 -0.48154613 -0.29442963 0.16345865 0.24669078 -0.27619672 0.19232202 0.4691101 -0.05011622 -0.059797887 -0.33217648 0.2589252 -0.12905598 -0.06591813 -0.43356276 0.00028440688 -0.16663806 -0.10090797 -0.42992434 -0.22692382 -0.121501245 -0.3567026 0.13425241 0.20684962 0.1411055 0.24648386 -0.009623558 -0.26967826 0.26822194 -0.066940054 0.063653976 -0.008687752 0.23398523 -0.3031059 0.083897844 0.40615723 -0.23675929 0.18641499 -0.15089458 0.28007245 0.01940188 -0.00411579 -0.3952051 -0.034293007 0.15218303 -0.25923356 -0.3354322 -0.19415121 -0.029210292 0.19398662 0.04070243 -0.051867966 -0.06753122 0.15089409 0.119620025 -0.1447846 0.05669603 0.03380888 -0.028374486 0.30985826 -0.035112232 0.30348662 -0.02664144 0.09344653 -0.120804615 -0.044445906 -0.11379038 0.23707269 -0.45278046 0.13055682 -0.08842597 0.1038629 0.058313705 -0.2064455 -0.3258642 -0.54803485 -0.32222915 -0.11509268 -0.32509986 -0.54524 -0.408326 -0.3927288 0.19288707 0.24127844 -0.09771264 -0.32531658 0.025101565 0.046770707 -0.2709015 -0.15487835 -0.42068547 -0.27891815 -0.1035552 0.46420765 -0.30196095 -0.10733816 0.1587858 -0.044941083 0.07986197 -0.10930882 0.013684341 -0.06088968 -0.29443628 0.33434522 -0.13173614 -0.15259402 -0.15440787 0.10797738 -0.23839557 0.07370572 0.25173858 0.048639856 0.046388324 0.117643155 0.06629222 0.5255418 0.05670877 -0.09266681 -0.3318291 0.30452898 0.11071825 -0.18924798 0.25307247 0.011150931 -0.18585095 0.283617 -0.62715614 -0.22894803 -0.25388557 -0.12342196 0.08595907 -0.3328208 -0.66234136 -0.11162651 0.23643675 0.21006286 0.14356215 0.29109105 0.160146 0.026112096 0.27522433 -0.19084111 -0.08175071 0.0049628033 0.07380988 0.06857423 -0.06504792 -0.5060434 -0.07759553 0.079144284 -0.35804245 -0.022556257 0.08150105 0.33597586 0.48943236 0.016372973 -0.027650341 0.41029555 0.1335909 -0.18560468 -0.050223995 0.5301925 -0.014237631
작 0.21282344 0.033580363 0.012593331 0.2834575 0.33040825 -0.048467997 0.17596722 0.6849121 -0.076547764 -0.009873223 0.06254386 -0.2812223 0.0107059125 0.34031805 -0.5661997 -0.07863989 0.6835864 -0.0141339125 0.30262005 -0.16693185 -0.22830132 0.006801763 0.4936342 -0.104574606 0.4104065 0.4260742 -0.42687985 -0.07725791 0.11773885 -0.2000349 0.13588172 0.39657956 0.35627675 0.16886672 -0.13352194 0.3341587 -0.24222282 -0.46696705 -0.24617746 -0.2625626 -0.14028421 -0.1635491 0.1401617 -0.26798588 -0.039659057 0.37522873 -0.18681428 -0.19107752 -0.49151668 0.23776178 0.3067764 -0.40596318 -0.29683962 0.29457414 -0.22908543 -0.07836198 0.026470525 -0.3842552 -0.09514679 -0.15933062 0.0059081605 -0.21353246 0.2219405 -0.082459494 -0.310026 0.34194848 0.24997966 -0.07367456 -0.2736418 -0.2759537 0.00010650129 0.14013337 0.23735176 -0.2682359 -0.19639772 -0.04620435 -0.1495539 0.36069337 -0.16706333 0.6981157 0.03633753 -0.35803005 -0.14792521 0.37265235 -0.01625033 0.05106605 0.15079483 -0.1265863 -0.08875046 0.06513381 0.18057 -0.14618188 0.2848139 0.15637222 -0.04690688 -0.029631 0.532269 -0.31665888 -0.15356436 0.56111974 0.21821249 -0.19558707 0.34711623 0.44394046 -0.20019834 -0.26755434 0.1673349 -0.40160027 -0.5591546 -0.103878446 -0.27498856 -0.21148433 0.030476753 -0.054129776 0.2328405 0.24881527 0.108935736 0.06538228 0.068104565 -0.46637723 0.23828506 0.46294796 0.08885752 -0.21622205 -0.19951572 0.72518826 0.08117496 -0.47438827 -0.3466946 0.5696815 -0.13985795 0.31104633 -0.043896925 -0.61755264 -0.0019040402 0.062541 -0.29050714 -0.36288643 -0.7818841 -0.27284274 0.32220206 -0.6316787 -0.073159404 0.02656017 0.44301653 -0.4776458 -0.27031672 -0.39757064 0.28308973 -0.03480218 -0.0061345166 -0.4450356 0.10568655 -0.18595734 -0.06295373 0.37139243 -0.32523695 0.10304773 -0.013639931 0.39927036 0.33062825 0.16412093 -0.12995571 0.6098073 -0.18133965 0.3382975 -0.34111747 0.28002945 0.05647092 0.4765064 -0.15030566 -0.03160274 0.25415227 -0.06085154 -0.05878141 0.44994807 0.14248702 -0.37636104 0.08667118 -0.2023273 -0.27492014 0.17456725 -0.4037264 -0.13307647 -0.4936305 0.026012618 0.49111614 0.5077034 0.42213818 -0.44563723 -0.12101756 -0.023987552 -0.46036136 0.18880804 -0.2001431 -0.17265637 0.15186644 -0.32640943 0.5485401 -0.3647636 -0.26240993 0.26170698 0.25374344 -0.2683642 0.15766473 0.048081506 0.10190602 0.014544533 -0.031021507 -0.35866964 0.028347565 -0.5448355 0.097780146 -0.16069104 0.54718506 0.03130222 -0.58625245 -0.5219017 -0.14075966 -0.16643007 0.30707538 -0.047598936 -0.016310096 -0.5375118 -0.10697504 0.19175698 0.14305189 -0.5069016 0.14679568 -0.4863082 0.34094948 -0.17641847 -0.04449383 0.53000945 -0.36255535 0.03968202 0.31647646 0.41556108 -0.037915755 -0.6439928 0.27896705 0.32760003 -0.08941501 -0.10442785 0.02892733 -0.2937992 -0.08126129 0.160013 -0.12299236 0.0728041 0.064144805 0.2630117 0.45827714 -0.41893086 -0.23371354 -0.33376902 0.47952083 -0.027306076 0.022636823 -0.3056067 -0.0995486 -0.0450684 0.48502168 -0.3594784 -0.4322296 -0.012637056 0.13450477 0.3086254 -0.60431963 0.12908192 -0.5707601 0.1068811 0.21690884 0.23479638 0.08523406 -0.17738155 0.2723814 -0.40518364 -0.47484538 -0.33312628 0.040130284 -0.17753154 0.24638449 0.24369021 0.42102924 0.36344495 -0.16577598 -0.28746814 0.12004467 0.29131803 0.021793205 0.2032876 0.079982504 -0.2639509 0.5833623 0.38611606 0.09930596 0.3033973 0.41404858 0.12438841
사 -0.037265025 0.066806145 -0.38871467 0.39767432 -0.22700852 -0.23312506 0.18639779 0.2813767 -0.10997502 -0.26761588 0.077933714 -0.14907837 -0.015499378 -0.12029189 -0.27573052 0.001722752 0.30726427 -0.7441568 0.26201665 -0.29730022 -0.44458038 0.34541863 0.10219802 0.042360727 0.37045476 -0.10529382 -0.395994 0.45213297 0.021995751 -0.16579595 0.34117213 -0.18601531 0.09985028 0.08087776 -0.3378957 0.040108293 -0.11157992 0.070162155 -0.089345925 -0.055603515 -0.1055915 -0.03436354 -0.09806515 -0.24420077 0.119399115 -0.055973526 -0.13291492 0.13343145 -0.06224475 0.49666107 -0.002882707 0.24994257 0.093215406 0.18564487 0.27059138 -0.334818 -0.17686072 -0.2099632 0.022246448 0.06471703 -0.16514291 0.0014005074 0.09081726 -0.06909008 -0.1876824 0.008265194 -0.1811721 -0.51518524 -0.12869541 -0.014162826 0.025874836 0.12077483 0.17777014 -0.34342116 -0.12124195 -0.15428443 -0.19364236 -0.10943724 0.25273436 0.24308872 0.0144542055 -0.22948745 0.16988282 0.2541257 0.21704997 -0.06694122 -0.3166489 -0.020017153 0.24929094 0.26515743 -0.17762142 -0.10548147 0.06804395 0.22965986 0.28568858 0.041582506 -0.05240162 0.207324 0.07777147 0.083898626 0.22065152 0.015846765 0.12500243 -0.1730972 -0.14086607 -0.38253856 -0.31796953 0.2508997 -0.060831457 -0.4030789 0.06659942 -0.35044366 0.15419346 -0.17573774 0.12512968 0.192155 0.107141964 -0.10037641 0.20290545 -0.2501889 0.0014316736 -0.16137247 0.43612447 0.016517518 -0.055373296 0.4054929 0.12083344 -0.34669495 0.09409623 0.06312711 -0.17506453 0.27037394 0.17099267 0.1393897 0.16296187 0.21437061 -0.029355403 -0.3533914 -0.6296292 7.083946e-05 -0.1357131 -0.2535224 0.112146564 0.004085931 -0.18382579 -0.3400245 -0.5830045 -0.19221006 0.04730531 -0.19831991 0.2513723 -0.3358033 -0.15713193 0.078511976 -0.10064628 -0.0021218385 -0.31030744 0.16291419 0.02200302 0.09403874 -0.35174876 -0.17960273 0.028869564 0.12848504 -0.5633342 0.23052596 -0.30217212 -0.18430197 0.20407097 0.13302228 0.19799805 0.3394034 0.33480784 0.031277135 0.11067433 0.39429823 0.092058666 -0.45433888 -0.16462438 0.23651731 0.1553826 0.45513746 0.11304966 0.10921936 -0.1851657 0.41546097 0.147335 0.31778395 0.33543056 0.088157155 0.47727236 0.07651322 -0.08297959 0.10391522 -0.2909864 -0.14162895 0.18669719 -0.3424229 0.21681724 -0.26894793 0.16939381 0.10791587 0.20091888 -0.030929498 -0.30751848 -0.49587545 0.09422054 -0.037996043 -0.23751369 -0.44468847 0.15159011 -0.22004724 -0.14753932 -0.27658936 0.44397718 -0.35043913 -0.34654868 -0.866054 -0.08932157 -0.39273635 0.07684983 -0.18109015 -0.17850196 -0.24298204 -0.41793245 -0.20470497 -0.22129954 0.18952808 -0.04741197 -0.086136594 0.19137996 -0.1893131 0.19436947 -0.086210825 0.29042146 -0.09112649 0.12635802 -0.16727892 -0.694292 -0.5949172 -0.051353496 0.16125008 -0.0072826566 0.2950625 -0.045380123 -0.3109691 0.1763827 0.081480674 -0.13847704 0.5409545 0.30070966 -0.08829496 0.3859155 -0.048469555 -0.3323246 -0.28268534 0.6107616 0.050329786 -0.4736015 -0.2104039 -0.078594945 0.06656412 -0.086236864 -0.104062624 -0.47774044 0.15490566 0.483057 0.38112575 -0.40584958 0.25668982 -0.16048734 0.53060836 0.24027003 0.12294706 0.18300974 -0.01841133 -0.18751566 0.18124774 -0.14516994 -0.09054167 -0.045032408 0.24627279 -0.58042955 -0.10985166 0.4193202 0.06960152 -0.45573846 0.09568466 0.38617072 0.84275043 0.12586227 0.023741927 -0.22432579 0.09858032 0.5720165 -0.15446302 -0.38349956 -0.11264732 -0.1095456 -0.27694312
자 0.34869733 -0.09961635 0.22291858 -0.053666987 -0.31615978 -0.0995307 0.22270563 0.3042245 0.3391099 -0.1664804 -0.04766589 -0.24461946 -0.10933057 -0.18411803 -0.04604834 -0.45895743 0.07121918 -0.08340056 -0.037530128 -0.3469 -0.1529133 0.02845448 0.56940615 -0.13794108 0.14641052 -0.158289 -0.35187286 0.5060906 -0.25072595 -0.04857579 -0.50641227 -0.09047617 -0.021784915 -0.15719025 -0.28927764 -0.14030209 -0.31989667 -0.60798746 0.24164625 -0.06844137 0.021966176 0.4074128 0.10645345 -0.25824302 -0.1642103 -0.1380661 0.08974718 -0.085996404 -0.41291368 0.5188746 0.28666696 -0.0861856 -0.038336772 -0.033988856 -0.08197481 0.06268252 0.08829787 -0.025538802 0.29510123 0.28134787 -0.3403667 -0.49343002 0.22291039 -0.13169932 -0.3077883 0.2979341 0.39054734 -0.11790776 -0.48069614 -0.08395125 0.2871861 0.34077188 0.42974773 -0.4402174 0.14928187 -0.16066633 -0.066792645 -0.38939944 -0.19288383 0.29080158 -0.08167864 -0.18398228 -0.079269126 0.45939207 -0.08758754 0.25374418 0.38629526 -0.083028406 0.30416027 0.6854492 0.1955949 0.0093796 0.07954054 -0.14414951 0.16108924 0.4001392 0.662697 -0.045341328 0.025283184 -0.044620607 -0.1984507 0.105337046 0.07949206 0.31942248 -0.17262708 -0.41556442 -0.45588773 -0.42585057 -0.3843668 -0.14441834 -0.10760411 -0.307237 -0.36759648 -0.033217777 0.39474112 0.34809297 0.10157009 0.09781947 0.34248662 -0.26134467 0.31568044 0.20053224 0.44359344 0.14550921 0.1641231 0.2056159 -0.18765172 0.016969802 0.028620293 -0.10461191 0.5060091 0.31188184 0.09904196 -0.35249433 0.0023934075 -0.054341797 -0.28394374 0.015754066 -0.26751608 -0.126432 -0.21250105 -0.4782323 0.39778194 -0.10878576 -0.24731149 -0.1702533 -0.0827237 -0.113892935 0.49355704 -0.10773232 0.09018913 -0.5685435 -0.6743825 0.24255393 0.16147567 0.23432279 -0.022199051 0.09372872 -0.019971736 0.51535714 -0.19158325 0.26497155 -0.37319034 0.2966105 0.058273036 -0.011672872 0.44698447 0.029568762 0.42518362 0.46386346 -0.35590395 0.04964509 0.14686729 0.06719052 -0.07212829 0.21520306 -0.25205007 -0.11137079 0.3910447 -0.30593294 0.29486084 -0.0027141944 -0.078922875 -0.33183697 0.18257329 0.25091097 0.2228027 0.58279365 0.33283213 -0.32569474 0.56569713 0.10278932 -0.45983204 0.07744864 -0.2006185 -0.017741852 0.504847 0.043767627 -0.059567183 -0.072268315 0.20716189 0.21816334 0.16488779 -0.070403725 0.4253916 -0.47376204 0.08956953 0.3506852 0.22785218 -0.2977217 -0.0017920645 -0.43589312 0.039472923 -0.19494069 0.091470145 0.14879388 0.18682952 -0.38031557 0.033018455 -0.2641272 0.20193207 0.16343343 0.059414685 -0.3641955 -0.16061057 -0.21516487 -0.014577758 -0.07379963 -0.07298583 0.062161207 0.077148296 0.26035288 0.2539656 -0.2008138 -0.23988107 -0.26536387 0.201905 0.08619334 -0.16117044 0.30753553 0.4136426 0.11302679 0.015743265 0.065918736 0.010982422 0.012542134 -0.30029073 -0.23890735 0.23582563 0.25680244 0.26888973 0.1863215 0.059205376 -0.1939035 -0.2015258 -0.3822871 0.46811822 -0.15863916 -0.38628092 0.03981686 0.08546853 -0.04195536 0.0070624496 -0.23905233 -0.14573626 -0.1692316 0.067216985 0.40458968 -0.43598676 0.1931303 -0.052375782 0.063028544 0.2345681 0.01017312 0.19255543 -0.20972872 0.20339 0.24319898 -0.32486713 0.03145296 -0.16354194 -0.28899178 0.16289468 -0.10704777 0.1638385 0.29449394 -0.21175113 0.016715223 0.016943585 0.08089007 0.20344463 0.13099925 0.33000228 0.17607896 0.33339867 0.3071487 0.19761418 0.31872973 -0.20490581 -0.11884869
이 -0.2085858 0.18881522 0.029656483 0.2000627 -0.33004707 0.076787606 -0.27035916 0.40857083 0.022203034 0.37035018 -0.26827025 -0.034173634 -0.13082182 -0.027266381 -0.20042886 -0.23017037 -0.11140278 0.17246592 0.18402293 0.21396965 -0.17293684 0.21894377 0.13446094 -0.4265928 0.25567088 -0.21379346 0.044823457 0.25638267 -0.33959454 -0.34621182 -0.036090642 -0.06607372 0.39291275 0.15315886 0.1671624 0.49245715 0.025848465 -0.1926778 -0.3903358 0.5701964 0.02391665 0.080034755 -0.17435984 0.079678826 0.25119725 0.23250458 -0.4568708 -0.2317183 -0.15384597 -0.5015075 -0.08141954 -0.15735407 -0.13144164 0.20784917 -0.12262604 0.3481518 -0.072748825 -0.3434645 0.2855207 0.20382802 -0.20626172 -0.22577447 0.051950525 0.16152711 0.0055418336 -0.19408473 -0.591719 0.17298238 -0.07713693 -0.22465654 -0.4523685 0.17270708 0.1805894 -0.15018488 -0.25619707 -0.029741364 -0.06322648 -0.287403 -0.045358986 0.3014248 -0.44445744 -0.37960124 -0.048565567 0.18299425 -0.008224968 0.20814481 0.08171888 0.08762308 0.47837302 0.40547457 0.07063632 0.11110459 -0.15920083 -0.19836788 -0.028946852 0.40447015 0.33981577 -0.00054550386 -0.102800496 0.47583848 -0.35957375 -0.48229232 0.06143567 -0.09280993 0.017299302 0.09636439 -0.21112181 0.44899163 -0.12720008 -0.08224056 -0.10531103 -0.45914614 -0.2719592 0.55101275 -0.18884996 0.17477134 -0.42298514 -0.009276622 0.07504281 -0.16530812 0.59266883 0.28065705 -0.25741306 0.010144941 -0.15918897 0.12761497 0.037086703 -0.42956015 -0.45284545 0.004305136 0.23423874 0.27454075 0.11357654 -0.267987 0.13658156 -0.15248966 -0.010655862 -0.09938965 -0.72662276 -0.27512994 0.4724147 -0.16720696 0.16892937 0.29268473 0.28549734 0.034686916 -0.29672638 -0.23704156 0.49099737 0.13767852 -0.4114763 -0.50610477 -0.19035937 -0.12730867 -0.033231325 0.018616084 0.11744636 -0.2963825 -0.28533998 -0.14266503 0.48779312 0.19842698 0.01838025 0.29581267 -0.16949289 -0.039232183 -0.44714233 0.4396801 -0.030048262 0.6753122 0.4092504 0.13518716 0.121034004 0.22545832 0.14604026 -0.4848604 0.53230816 -0.3512001 0.16642588 -0.17536534 0.48480728 -0.35752702 -0.52122164 -0.31668764 -0.29032603 -0.04872327 -0.09872913 -0.15183179 -0.123884305 0.074705936 0.5459905 0.091593444 0.12876089 0.015765114 0.02619156 0.3790264 -0.3661004 -0.43020943 -0.017010039 -0.13673666 -0.15451515 0.40819618 -0.17604461 -0.17892322 -0.085507646 -0.18859248 -0.1417257 -0.13462575 -0.24807638 -0.5260519 -0.28110045 0.16510628 0.27710623 -0.21587273 0.4483611 -0.38963032 0.07066781 0.07603127 -0.057383604 -0.22597373 -0.5173357 -0.23086841 -0.357947 -0.004803702 0.10507742 0.0377814 -0.09380529 -0.10562472 -0.0383207 0.07411431 -0.08232497 0.17791612 -0.18139674 -0.10801161 -0.013635715 0.3970532 -0.22616932 0.5457033 0.5162759 -0.12272604 0.09111907 -0.27437168 0.33563346 -0.018337836 0.23313478 -0.073739745 -0.34864792 -0.0030928461 0.11271573 -0.044597235 0.18464299 0.43596795 0.3275988 -0.097280495 0.28078884 0.19122274 0.11241564 -0.04080177 -0.1336133 -0.04228249 -0.04669286 -0.10640844 0.14541905 -0.14883226 0.0015884892 0.020365886 -0.14149994 -0.03225407 -0.16732927 -0.40434185 -0.095578775 0.14905098 0.057308283 0.3030402 0.4496989 0.41836584 0.024792148 0.10983324 0.029731564 0.14205778 0.096484736 -0.05626952 0.37010652 0.14381497 0.26623857 0.29507554 0.1261559 -0.14052463 0.108958475 0.17155299 -0.16516937 0.4905514 0.31564823 -0.30708295 0.16075177 0.2632181 -0.13352469 -0.10219892 -0.11827288 -0.23278819
부 0.20473339 0.19758868 -0.09368202 0.43609536 0.3701681 -0.09748199 0.45600808 0.50041974 -0.18597755 -0.28023624 -0.05069055 -0.2394507 -0.016282037 0.0360902 -0.08592859 0.06809878 0.14913571 0.44299144 -0.0012602422 0.2503654 -0.30714417 -0.4555823 -0.05369508 -0.26849023 0.053526334 -0.077936456 -0.542322 0.029258622 0.16885954 -0.27321768 0.44526437 -0.43858987 0.2056533 0.098576605 -0.02697734 0.16278134 0.22380495 0.085171625 0.16636792 0.17494431 -0.32321668 -0.15361892 -0.22877413 -0.09997459 -0.10255703 0.08055859 -0.00036887184 -0.11480894 0.37239838 0.3976123 -0.088388376 0.16294082 0.052191548 0.2948773 0.15913211 0.5861865 0.12028626 -0.16977082 0.59305125 0.29848343 -0.06617404 0.076802954 -0.01988566 0.12974216 0.007763111 0.28363568 0.30389833 0.2449182 -0.197389 -0.17987771 0.28457177 0.10718563 0.45307457 -0.09358181 0.23802465 -0.06570336 0.11685161 0.18806459 -0.40362117 -0.31943768 -0.53529614 -0.32662627 -0.06275579 0.08581916 0.14333048 -0.07208266 -0.25469857 0.04885962 0.43732557 0.10575617 0.5114846 0.13066392 0.6675871 0.43705988 0.1716162 0.22868755 0.50032556 0.21576044 0.24297483 -0.02521779 0.26597083 0.1882551 0.10380314 0.26428455 -0.13981707 -0.17505738 0.45774415 0.05226831 -0.0854279 -0.01596694 -0.106337704 -0.17877711 0.19115661 0.31679153 0.07025307 0.47260857 0.3559601 -0.2707154 0.32304394 -0.07972975 -0.16833137 0.22171195 -0.0721334 -0.071922705 -0.1550538 0.504847 0.1537005 -0.53065175 0.15541044 -0.12687549 0.13790883 0.004376 0.18546177 -0.082531065 0.17724827 0.16587293 -0.003192848 -0.090314165 -0.3094639 -0.71372753 -0.27040198 0.049637754 0.24591698 0.044706795 -0.2942054 -0.22974798 -0.2891754 -0.37256914 0.23030704 -0.13683438 -0.21414211 -0.41645578 -0.4099744 -0.050307594 0.21499509 0.55058175 -0.26321954 -0.06968766 -0.04442272 0.10525467 0.06242694 -0.054454867 -0.3497026 0.10028778 -0.12380478 0.08590553 -0.33363354 0.028192628 -0.18080127 0.05572353 -0.38981286 0.14443356 0.2380948 -0.4145174 -0.074263275 0.38145015 -0.04675118 0.15012527 -0.08977295 -0.03016485 -0.18708342 0.11936187 0.18735981 0.049954 -0.103574805 0.25494415 0.00018425846 0.19115824 0.3526864 -0.5063977 -0.24195184 0.25208354 -0.54185766 0.3210221 -0.15254171 -0.69358563 -0.34022924 0.2628191 0.31124887 0.66739535 -0.02670512 -0.25382608 -0.13447313 0.20749514 0.16442548 0.08463238 -0.19061035 0.088152684 0.31115738 -0.07001008 -0.07039921 0.07357527 0.24260132 -0.01570715 0.42482293 -0.19525638 -0.10425225 -0.12115426 -0.26398906 -0.38195533 0.27367488 0.021193407 -0.3143232 -0.14294375 0.13071157 -0.21123064 0.105496645 0.09031128 -0.61549455 0.15060814 -0.19046797 -0.47209746 -0.24280119 0.35663474 -0.022079736 0.077502586 0.3692973 0.20509078 -0.014783249 0.30897728 0.47651914 -0.05293561 0.10224484 0.4183625 -0.33769253 -0.3561613 -0.14089176 0.021084933 0.07323802 0.20350802 0.3576119 -0.17385584 0.19754685 0.039912995 -0.3580896 0.1343827 0.05381552 -0.28203362 -0.37140182 0.26462272 -0.2006256 0.45362395 -0.062078357 -0.5480011 0.08206573 0.052245457 0.31875625 -0.038559366 -0.1004014 -0.1603512 0.29436415 -0.15567884 -0.08657151 -0.32082778 0.0948166 0.30220604 0.36582118 0.21154931 -0.35078093 0.20364434 -0.51913947 -0.20716429 -0.101944596 0.07459265 -0.74903744 0.2623441 -0.15933095 0.119194075 -0.12029153 0.023634668 0.04103268 0.43046147 0.0152045665 0.17141628 0.4254383 0.3846088 0.053107016 -0.09011878 -0.269255 0.11629964
재 0.15497042 0.5467112 0.19160347 0.64131 0.004227667 0.21695165 -0.022972692 0.40069216 -0.056910977 0.58609515 0.21290338 0.0008457093 -0.03020291 -0.24914114 -0.3719031 -0.1272365 0.37949574 -0.15653415 -0.2914494 0.2499949 -0.33739012 0.13980325 0.15651362 0.082805954 0.2312842 0.33279467 -0.4845741 -0.034490414 0.26254782 -0.21086717 0.2987586 -0.4403643 0.15476286 -0.30099258 0.3468558 -0.06525152 0.06289079 -0.42325017 -0.046672575 -0.12448971 -0.3267374 0.078550465 0.07913589 -0.012403416 -0.05633065 -0.3341847 -0.020424338 -0.054050814 -0.28585017 0.17925449 0.55280423 0.19053113 -0.40169272 0.40727964 -0.051506598 0.12923208 0.067133434 0.16421995 -0.048311576 -0.013071329 -0.2656582 0.18484133 -0.47635424 0.2492449 -0.088329725 -0.00036195602 0.2925447 0.29108354 -0.10786373 0.22259054 0.062351752 0.028468378 -0.13040006 -0.4817662 -0.054761723 0.11567414 0.111867845 0.06521738 0.045227174 0.59599215 -0.30461267 -0.28116915 0.13013797 0.42915672 0.14343703 0.121126495 -0.1021545 0.20953861 0.017084958 0.47143325 0.5493237 -0.37033924 0.17716512 -0.03469447 0.014249136 -0.04620074 -0.01468329 0.24180162 -0.41413805 0.43165645 -0.22100715 0.19872166 0.0013256178 0.20263578 -0.08544929 -0.102239996 0.18686345 0.09485579 -0.59242046 -0.15068193 -0.2558131 -0.20799479 0.20162907 -0.0008868375 0.23269199 0.44286475 -0.11988947 0.14261048 0.7672805 -0.41167945 -0.15343644 0.37895995 -0.18473479 0.34166494 -0.000516475 0.17891668 -0.035997637 -0.33183303 -0.11000548 0.013433334 0.22331308 0.22859217 -0.10897574 -0.25802937 0.35063753 0.45864436 0.29843095 -0.4518476 -0.45687762 -0.15146779 0.2746724 -0.22012675 -0.23481992 -0.02152702 0.015979825 -0.16923289 -0.09283529 0.105210066 -0.42329907 -0.27155173 0.33576345 -0.5763564 -0.48945448 0.3548077 0.008279307 0.36121482 -0.36629698 -0.16400072 -0.26499876 0.115394995 -0.16215165 0.013551771 -0.3069462 0.41389617 0.25376 0.0672848 -0.019901646 -0.01687568 -0.30202824 0.5971463 -0.3375964 0.065360315 0.23871951 0.0024783253 -0.31175599 0.080477744 -0.31170043 -0.06713166 -0.083006606 0.14892651 -0.36086532 0.108452655 0.057216395 -0.20854194 -0.34547642 0.4044875 0.532926 -0.028392088 0.01100063 -0.12854578 0.058441356 -0.12566106 -0.26254112 0.02812351 0.23201045 -0.31754753 0.0849374 -0.3367492 0.20065552 0.014291344 -0.485665 -0.26944563 0.29560858 -0.67380583 -0.219401 -0.025642484 -0.25759092 -0.056900207 0.1256255 -0.036685035 -0.28483605 -0.39078274 -0.3207696 -0.10077527 0.4657188 0.16712402 0.10012822 -0.8086877 0.115432195 -0.2625249 0.55402994 -0.15579373 0.042841595 -0.14840943 -0.16170548 0.18047358 -0.110099375 0.09667057 -0.12357723 0.21228255 0.22577105 0.25174373 -0.6283345 0.080710076 -0.21768764 -0.060632486 0.2556649 0.19568245 -0.320761 0.13802402 0.37417188 0.1319998 0.23096094 -0.2949902 0.08442237 -0.31013143 -0.32509747 0.097814746 -0.07061363 0.18193729 0.31514427 0.27690566 0.4049786 0.23289397 -0.42244267 0.010384558 0.40384087 0.50021905 -0.23509985 -0.25183815 0.0038702302 0.025589768 -0.11344982 -0.13559775 -0.03928716 -0.005088412 0.31684878 0.04041034 0.37299526 0.25248122 -0.19044755 0.060345184 -0.117650576 -0.34847185 0.6018057 -0.077712044 0.41014686 -0.066624105 -0.047048505 0.18553686 -0.18927959 0.0060600257 0.23887567 0.3994196 -0.16286863 0.08905748 -0.3062224 0.46677008 -0.2023678 0.08155932 0.06857845 -0.038653664 -0.008399682 0.03557906 0.100615524 0.52346045 0.16632023 -0.19461796 0.023751067 0.21310528
발 -0.44180918 0.041867044 0.16404635 0.0072277538 -0.3423462 -0.3308624 0.2766394 0.7604404 -0.2993922 -0.19315563 -0.06197054 0.18398085 -0.20884883 0.45866463 -0.33096147 0.07369853 0.49058405 0.2752954 -0.3351759 -0.34383893 -0.59785026 0.11562816 0.18429442 -0.015110694 0.1859134 -0.5919407 -0.042188153 -0.069993846 0.24870104 -0.2261691 0.20885117 0.30091417 -0.03050689 0.56025 -0.107872196 0.1761788 0.6730332 -0.44890428 0.4014071 0.2606711 -0.32669786 0.03229965 0.48242673 -0.26338267 0.46164468 -0.04699961 0.20476216 0.10190249 0.25034982 0.13010828 0.2542053 0.5183202 0.4409908 -0.09472941 0.51634973 0.019827414 0.40611225 0.1361172 0.5009124 0.32604524 0.054762203 -0.2841091 0.29235056 -0.044377975 0.239364 -0.26194507 0.09348419 -0.29028422 -0.28136057 0.006965317 0.006553293 -0.1365983 0.13428122 0.21162885 -0.023925086 0.057732813 -0.26921216 0.34988785 0.04060042 0.2387762 0.5332769 -0.23474228 -0.06875054 0.47410417 0.31476322 0.4544703 0.01704407 -0.3153724 0.4181999 0.31786275 0.3928368 0.00033345778 -0.12001808 0.009832407 0.26623404 -0.20025171 0.31706858 -0.46796012 0.33924735 -0.52467084 0.12341717 0.17937817 -0.0014893622 -0.39417455 0.10504482 -0.031284705 -0.476197 0.2253989 -0.1123261 0.036053248 -0.3405572 0.35962445 -0.25039285 -0.017056664 -0.04659398 0.2272288 0.25015736 0.25667942 0.024686085 -0.45631093 -0.1947946 0.04658575 0.038296875 -0.1397165 0.057922997 0.036582835 -0.05311597 -0.6893183 -0.082687326 0.13957804 -0.04554785 0.27482527 0.044217777 -0.5795912 -0.26424778 0.5474191 -0.11286481 -0.099880874 -0.124815635 -0.8850916 0.21541665 -0.042527284 0.23677863 -0.20591651 -0.3375383 -0.25684026 -0.4490829 -0.13037296 0.0075137904 -0.44153807 0.096395686 -0.36539832 -0.23754048 -0.008340906 -0.044685543 -0.16349787 -0.2932405 -0.29345348 -0.3819508 0.37768975 0.16257814 0.15060642 -0.026921477 0.0031864834 0.16265722 0.26352882 0.6416508 -0.53097266 -0.24380833 0.07645488 -0.23862694 -0.09973453 -0.524787 -0.021356069 0.30302945 0.051857553 -0.43200412 -0.1832538 0.031105878 0.065104656 0.17004192 0.4201593 -0.24464552 -0.22519173 -0.2934734 -0.06135161 -0.102904 0.17616515 0.11531844 -0.030229839 -0.00897503 -0.15947093 0.43127203 -0.09863353 0.08557597 0.06446903 -0.08419223 0.116334036 -0.026849795 -0.18166514 -0.11478154 0.07586486 -0.31155497 0.31502208 0.30718932 0.00981621 0.1665319 0.12618575 -0.4387096 -0.005424224 0.14351787 0.23426303 0.02011022 -0.09060773 -0.4327199 -0.26791027 -0.5136623 -0.5331402 -0.27413198 -0.08430945 0.25048658 0.026336692 -0.028708212 -0.21470313 -0.28490457 -0.0651005 -0.2529661 -0.07670474 -0.10305818 0.5140598 0.15560059 0.04203752 0.1776366 0.33867386 -0.22118579 0.17721145 -0.32039833 0.04199493 -0.15769823 -0.25732085 0.24725942 0.022807157 0.0005935707 0.24472255 -0.16007249 -0.20967726 0.26095137 -0.29406035 0.06274952 0.03595148 0.15457538 0.2626973 -0.439299 -0.10488687 -0.16186517 0.065492764 0.20917195 0.073466875 -0.60379374 -0.12355923 0.12641148 0.06510284 -0.11042642 -0.35612333 -0.49607152 0.077601895 0.3287771 0.23631692 -0.1647481 0.37982082 -0.3215285 -0.0612653 -0.08136851 0.056423735 0.31132233 -0.41448513 0.35748738 -0.1344467 -0.18571597 0.37902117 0.120895214 0.27751207 -0.3370047 0.086183205 0.12593678 -0.17743522 -0.3618377 0.42745525 0.15846664 0.44217178 0.31891835 -0.020218357 -0.19882277 -0.2911184 -0.021402923 -0.13011622 0.19363666 0.0656548 0.5363949 -0.31358835
지 -0.1403704 0.07147779 -0.3448225 0.21505901 0.04477316 -0.044432413 0.4102475 0.028462145 0.25248313 -0.08593155 0.33804604 -0.58690315 -0.4530329 0.09529517 -0.08122082 -0.09503976 0.23754206 -0.114557356 -0.17210217 0.052639585 -0.62317055 0.035958845 -0.24170083 0.025033403 0.07163942 0.011340505 -0.7139011 0.0597742 -0.3023506 -0.22093478 0.6792965 -0.16255999 -0.0610362 0.018715786 -0.32419282 -0.19444872 0.20442553 0.13808043 0.087695196 -0.42457235 -0.0191146 -0.31167048 -0.058482848 -0.1291247 0.026299257 0.45995483 -0.21271172 0.3378463 0.40317872 0.72703624 0.023586666 -0.19689727 0.16029479 0.0635531 0.051825676 0.21784125 0.009087341 0.047379218 0.22117768 0.10569518 -0.035515428 -0.28666258 0.104879014 -0.087494306 -0.23738335 0.11549868 -0.15137832 0.34048823 -0.33671573 -0.0754757 0.006423022 0.015781851 0.022182437 -0.21712337 -0.27123332 0.30795017 -0.3833376 0.079190016 -0.25929245 0.18794346 0.042057578 -0.009351059 0.3647132 -0.069621176 0.26455182 -0.021265952 0.091068074 -0.17758873 -0.10433468 0.15408853 0.18161273 -0.19119528 0.30535612 -0.3509971 0.3460545 0.41672355 0.058697958 0.056353204 0.022887826 -0.18859151 -0.0033145277 -0.12577467 -0.23469405 -0.07449595 0.0152231 -0.23109953 0.25141913 0.062313996 -0.26619607 0.0056227427 -0.17095143 0.09485774 0.1703979 0.18110299 -0.08014588 0.0017985412 0.25678945 -0.06080488 -0.1258871 -0.08872098 0.20560731 0.19443476 0.08021852 0.28230715 0.3451533 -0.0104095545 0.46721157 -0.13560425 0.2892885 0.19357543 -0.03656705 -0.071007796 0.38623434 -0.27742484 -0.19970483 0.5231537 -0.05465565 -0.19801828 -0.5775958 -0.22205062 -0.04532283 0.3234561 -0.10283086 -0.14692865 0.41907513 -0.21708031 -0.5498916 -0.30034003 -0.16101454 -0.20592931 -0.10687331 -0.3822944 -0.111209504 -0.25052604 -0.19104464 -0.25476784 -0.30027863 0.08240636 -0.065879025 0.26492277 0.24482594 -0.065572076 -0.23680776 -0.11469754 -0.19837914 0.043196037 -0.2648081 -0.11369723 0.16845751 0.41693333 -0.07298206 -0.2152965 -0.05195081 -0.08168705 0.09434871 -0.33947492 0.19059484 -0.2211803 -0.33646393 0.21776198 -0.07738784 0.014615049 -0.51313806 0.45387653 -0.5454598 -0.051672913 0.43307763 -0.11353444 -0.3296829 -0.06898148 0.44349006 0.08881257 -0.35724777 0.041406967 0.1394868 0.23421021 -0.09252039 -0.1901889 0.53105235 0.24748635 -0.49234462 -0.11840878 -0.28740457 -0.1896642 0.4198416 -0.11537079 -0.38840038 0.06066291 -0.11986785 0.050525285 0.021750819 0.16689111 0.24898307 0.19902858 0.088459805 -0.7611669 -0.056246147 -0.55238074 -0.43170306 -0.34240213 0.06663145 0.16532053 -0.098407306 0.26474833 0.164659 0.35904983 0.23997377 0.048895862 0.12877147 0.03396168 -0.19720326 0.25911123 -0.30271608 0.011482043 -0.23783265 -0.115105614 -0.168767 -0.014898987 0.19919172 -0.13661142 -0.18087038 -0.08350887 0.26294264 0.07578706 -0.030893082 -0.2936678 -0.22706383 0.11102519 -0.0010300205 -0.100369155 -0.13412324 -0.036570523 -0.07210352 0.22882876 -0.3986497 -0.22837837 0.26657584 0.1798025 -0.008157415 0.15556476 -0.35038206 0.26371995 0.010520808 -0.10325858 -0.4781954 -0.07290764 -0.28115195 0.17511466 -0.31026906 0.12732323 0.11236554 0.21169797 -0.34916326 -0.1927167 0.073161684 -0.16038157 0.124071114 0.3985564 -0.23004249 -0.122126475 0.017446028 0.061186325 -0.36420313 0.063798256 -0.11886567 0.32075477 -0.35296708 0.43666813 -0.15861754 0.08703208 0.054359388 0.34562024 0.3230963 0.26825136 0.10699312 -0.049319733 -0.15520248 0.003141634 -0.16344409 -0.11686936
시 -0.15030345 0.09487928 0.042191032 0.13673398 -0.14170325 0.16928487 0.41224772 0.56665 -0.18082422 0.20896563 -0.09850107 -0.039284445 -0.37132117 -0.22512908 0.12693052 -0.24596874 0.41708317 0.027010871 0.08702775 -0.5300622 0.3571954 -0.25478798 0.08295396 -0.041329995 0.023068441 0.006345165 0.04805846 0.013359438 -0.02070645 -0.4763115 0.2027072 -0.09466527 -0.038733575 -0.19743547 0.06759953 0.06993051 0.12805003 0.66064686 0.037209123 0.27810547 -0.25807166 -0.15043692 -0.07744189 0.0861795 0.033873335 -0.4366618 0.2693256 0.14569795 0.2008642 0.03066062 -0.22417486 0.20855373 -0.06525288 0.42801464 0.07144129 0.32192728 -0.12864597 -0.22856808 0.17640713 0.008430451 0.17430021 -0.20471334 0.19810995 -0.29690912 -0.13958003 -0.019209625 -0.10338585 0.2030123 -0.053736787 -0.40276712 0.24880375 -0.084663324 0.40470505 -0.29209304 0.003649545 0.26520783 0.023027346 0.20283642 -0.093205385 -0.016729845 -0.08975116 -0.038339287 0.026088357 0.2606213 -0.0026288556 -0.12906757 -0.016698623 -0.18466097 0.64916 0.1330717 -0.0034341908 0.028482264 0.38055077 -0.08877966 0.5878905 0.5357551 0.05864782 -0.11393303 -0.060469348 -0.26483363 -0.06758654 -0.814488 0.3317074 -0.0387543 0.16767496 -0.34846842 -0.01298572 -0.19821572 0.123542085 0.10998208 -0.08400183 -0.15603282 0.5346816 -0.21907185 -0.18685143 0.13337332 -0.02343614 -0.24014203 0.46255776 -0.21868075 0.23284788 0.40352997 0.3563747 -0.21455231 0.18403499 0.057569817 0.44069764 -0.13154529 -0.3099811 0.15951847 0.13767026 0.134377 0.22905244 -0.47113708 0.03817913 0.07058487 0.09438513 -0.45607373 -0.3105736 -0.46323392 -0.021290489 -0.60033613 0.36258754 0.44139346 0.01600281 0.6324291 0.025655339 -0.08843709 0.23636024 -0.39529914 0.14086495 -0.32031426 0.24257384 -0.43346635 0.05460987 -0.0075682043 -0.057485856 0.06811997 -0.2489612 0.23697048 0.33641267 0.46144748 -0.39610815 0.1626338 0.059549823 -0.04813092 0.18938448 0.34223977 0.07309962 0.44186687 -0.31707337 -0.28227466 -0.15368143 0.17008626 0.5381627 -0.012758703 -0.3385459 0.075893804 0.07807941 0.14914206 0.14753872 0.15763782 -0.05886648 -0.48757973 -0.3065992 0.02364316 0.0392989 0.15089299 0.26612204 -0.11424993 0.19111091 0.39419815 -0.34496376 0.14742313 0.050806552 -0.28383517 0.3068996 0.072258644 -0.24860832 -0.5018353 0.057808097 -0.10065907 -0.42654175 -0.17885453 0.06268807 -0.18340965 -0.23272783 0.39346588 -0.33804682 -0.01234868 -0.0224075 -0.26546198 -0.2234774 -0.19818887 0.18734673 -0.15174718 -0.14270513 0.04571448 0.14534712 -0.10499498 0.16177969 -0.11031428 -0.11951994 -0.47980642 0.06617131 -0.26739138 0.20354728 0.051646557 -0.209488 0.23906247 -0.02843321 -0.42427844 0.1344647 -0.07612431 0.18438481 0.32468385 -0.20865531 -0.2887501 -0.18091777 -0.29731137 -0.40842405 -0.10156867 -0.0040014703 -0.17929186 0.29041338 -0.23913378 0.2611629 0.31604168 0.0034847225 0.39720425 0.21589522 -0.037970003 0.41150358 0.14847882 -0.3513303 0.07048566 0.04833307 0.14794616 -0.44387496 0.24791509 0.25563926 0.0683671 0.50571495 -0.6140067 -0.38434157 0.22398476 -0.04293967 0.35824263 -0.5369695 -0.045546968 0.22648527 0.2247671 0.6215315 -0.060446557 0.1228571 0.1637436 0.19341062 0.25674838 -0.046118602 -0.103352346 0.21705447 -0.2162601 -0.17146462 0.039263926 -0.08566893 -0.039751172 -0.20403212 -0.36516193 0.32844403 0.65557957 -0.08258191 0.2616747 0.22902432 0.0850684 -0.31179914 0.20454875 -0.31181327 -0.41759396 0.5132381 -0.044731636
리 0.29507726 -0.036165018 -0.208873 -0.015975876 -0.025946978 -0.09259059 -0.1592211 0.5393338 -0.4323434 -0.15458572 -0.31064045 0.37115502 -0.2838633 0.23451914 -0.42796138 -0.1440606 0.03296927 0.4056796 0.016790522 0.35322386 -0.17457934 -0.11843846 0.27350706 -0.2305877 0.44107845 -0.043195598 0.14279427 -0.118842974 -0.0554567 0.06746695 0.04432138 -0.40812474 0.17992005 -0.38505486 -0.2929019 0.29613835 -0.3781758 -0.040095557 0.21267164 0.079059556 -0.07818791 -0.08783023 -0.12133616 -0.18289244 0.120694526 0.28417012 0.22817563 -0.3117971 -0.23135346 0.10399393 -0.06423561 0.11070278 -0.17133664 -0.22137406 0.13226907 0.3616988 -0.3235685 -0.34237546 -0.035809446 -0.306622 -0.44105124 -0.57757604 0.117447495 0.361546 0.06947148 -0.1639949 -0.13603324 -0.30976868 -0.1681336 -0.1929572 -0.012146314 -0.31451473 -0.07466338 -0.14076972 0.061145592 -0.05855041 -0.31561333 -0.029066226 0.08543917 0.3344315 0.11142666 -0.52292156 0.14732422 0.074540436 0.18622604 0.07604892 -0.032915927 0.025844133 0.090011224 0.0522842 0.24834438 -0.4294051 -0.03559047 -0.22249773 -0.61273724 0.53937757 -0.23408373 0.37398493 0.28117472 -0.0074133244 -0.056186672 0.16860467 0.13329636 -0.13260353 0.26142266 -0.24711351 -0.20572065 0.28176525 0.0536523 -0.2927518 -0.089945376 -0.2254838 0.21476845 0.08379995 -0.0395623 -0.016965246 -0.49425814 0.013335955 -0.036973972 -0.032177344 0.8205171 0.47766665 -0.31699273 0.09115419 0.14977536 0.11165491 0.4656823 -0.34673047 -0.12260841 0.08021346 -0.14788578 0.13354966 0.14853412 -0.44235468 0.015116091 -0.015738443 -0.15831977 -0.18926956 -0.46837464 -0.46534908 0.20689541 -0.16367786 0.34407422 -0.10523837 0.1286788 0.24071977 -0.16157113 -0.31889603 0.1402755 -0.29569414 0.116215 -0.90735114 -0.0008740874 -0.23707452 0.39239663 0.24481517 0.20362607 0.017517012 0.3335521 -0.23481116 0.378223 -0.27741686 -0.30224428 0.30746698 -0.37715808 0.10632129 0.025672775 0.16564192 -0.057879973 0.61373997 0.51544297 -0.042208325 0.023501141 0.21007292 0.29728645 0.40930578 0.08186497 -0.18224369 0.065590896 0.31838036 -0.3798684 0.30075246 -0.12972046 -0.10302174 0.15996018 0.054583333 -0.12444119 0.15153797 0.44131356 -0.15652873 0.008818605 0.035079874 -0.30880785 0.04435441 -0.19901565 0.3833966 -0.42856517 -0.26781026 -0.01783001 -0.1361278 -0.0031676423 -0.0681302 0.1064064 -0.17056373 -0.41731393 -0.46605957 0.16059148 -0.18897052 -0.38227013 -0.23105207 0.07320035 0.31797275 -0.10262148 0.13231486 0.48166886 0.109924614 -0.14845163 -0.11594753 -0.027674215 0.039812595 0.2754343 0.14954837 0.18407571 -0.56707716 -0.3628783 -0.20072427 0.064546786 0.39925337 -0.2692837 -0.077476256 0.15465255 -0.0062380494 -0.08188686 0.2731573 0.26049545 -0.05272935 0.00848943 -0.4718892 -0.068423055 0.091098726 -0.19079255 0.42625546 0.046031512 -0.0111930985 0.16940708 0.18068755 -0.25410363 0.19869174 0.50613314 0.072343536 0.13450603 0.33882573 -0.3082539 -0.17654547 0.04914554 -0.021429714 0.20731594 0.34510112 -0.12442065 -0.119738735 0.14796188 0.16201395 0.25086552 -0.51966035 -0.31903324 -0.00041314564 -0.11308352 -0.06438071 -0.010208172 -0.027699882 -0.22931993 0.19963461 0.22325392 0.07074061 0.38420996 0.17264244 0.13245569 -0.21193157 -0.24893545 0.10931503 -0.1814096 -0.03101413 -0.12706849 0.18353687 -0.013196093 0.106469885 -0.24638997 -0.13438591 0.5175553 0.05934185 -0.055551063 0.38969108 0.38117167 0.14826551 0.13842209 0.3655668 -0.026786545 0.29287544 0.017699188 -0.352071
장 0.50988084 0.65240705 -0.36910468 0.092185296 -0.26187915 -0.018784124 0.6254286 0.30388007 0.29256347 0.19999623 0.2707862 -0.30803734 -0.08763493 -0.02651603 -0.13076507 0.21310773 0.16139759 0.5523903 -0.13985515 0.12956914 -0.33152783 -0.32041508 -0.066599935 -0.090454854 -0.03727602 0.3160741 -0.1012527 -0.11443093 -0.14501637 -0.44540685 -0.3284827 -0.049727082 0.49428117 -0.21445008 -0.28727752 0.36627617 0.33094662 0.0816528 -0.044968914 0.21545057 -0.31484327 0.14598438 0.19078256 -0.15788071 0.28221962 -0.09718702 0.14352089 0.07320943 0.20131613 0.56578207 -0.082639754 0.07012834 -0.3382134 -0.15311565 -0.1341929 -0.13821301 0.15668954 0.028533287 0.40620676 -0.15997317 -0.028915804 -0.044766393 -0.30761924 -0.117319696 0.14657001 -0.08147622 0.14877269 0.18867072 -0.31945595 -0.1346302 0.43484873 0.06459435 0.23623 0.24483535 0.22105342 0.20166856 -0.048764147 -0.2389311 0.23034075 0.31543988 -0.17534176 -0.3872297 0.29580298 -0.08801963 0.032182314 -0.28426516 -0.073394366 0.24855581 0.34896794 0.46139073 -0.055025842 -0.13052969 0.12248507 0.044936392 0.24078535 0.32230482 0.36348116 0.19826746 -0.13370253 0.24312378 0.12028657 -0.23303318 0.10563857 -0.04040601 -0.24604124 -0.34341633 0.43326405 0.10742725 -0.41141284 -0.14903492 -0.19954194 -0.18220094 -0.27638605 -0.15044901 0.03401737 0.30324247 0.20172793 0.2860184 0.14880005 -0.16982006 -0.19508843 0.4462198 0.48482817 -0.08644191 0.12136757 0.38087708 -0.30659926 -0.5598564 -0.4424182 0.33422622 -0.06175663 0.19382381 0.45578316 -0.6268812 -0.32573828 0.15630677 -0.49664778 -0.51286215 -0.49682596 -0.14106888 0.14040358 -0.18463238 -0.055523507 0.18827032 0.19252557 -0.46395952 0.23914526 -0.5065024 0.1170744 -0.033782873 0.15681902 -0.60902274 -0.20160131 -0.065392986 -0.12911054 -0.08349667 -0.24820106 0.21325107 0.11094736 0.11935872 -0.022418702 0.14324862 -0.15078045 0.1349979 -0.34010565 0.38472652 -0.025500063 -0.16456908 -0.1071607 0.33448884 -0.1273978 0.36438274 0.3106223 -0.23503362 0.23064515 0.3878724 -0.4145994 -0.06819782 -0.5816919 0.14297734 0.10411511 0.34475872 -0.32945162 -0.22329643 -0.085781746 0.06633124 0.6449107 0.09437252 0.0735875 -0.54268676 0.013273191 0.13754961 -0.54337674 0.024201289 0.122972 0.0037448062 0.44330513 -0.08854886 0.034890294 -0.062787466 -0.2760888 -0.12836583 0.020266851 0.13666263 0.114345156 0.21521801 -0.12237863 -0.026298191 0.09009008 0.018019054 -0.15911582 -0.3205679 -0.390349 0.120922945 -0.079474024 -0.3622619 -0.43407646 -0.05600437 -0.02263992 0.2817656 0.56283134 -0.18902725 0.035452615 -0.29410473 0.15559791 -0.09057662 0.12311623 -0.1555228 0.017043598 0.40316263 0.10057322 0.21706434 0.21909045 0.38287196 0.15361588 0.17486145 0.16909134 0.21537165 0.060232505 -0.019812431 -0.017536948 0.0012614742 0.17373537 -0.16762747 0.05553293 -0.14968754 0.05776264 -0.46988136 0.4875106 -0.06350356 0.4425552 0.45158383 0.37732717 -0.22204629 -0.45351285 -0.20845704 0.09121994 0.026405448 -0.40325183 -0.107090235 0.121598214 -0.0426255 0.08845865 -0.4630419 -0.280926 -0.17977214 0.24682407 0.49608678 -0.47657275 0.2944821 -0.12617561 -0.32357648 0.010309064 0.17185698 -0.0960467 0.31641495 0.40654773 0.27673316 -0.10700386 0.23576432 0.009942857 -0.3283557 0.16157718 -0.15592776 -0.11138877 0.08171801 0.22131282 -0.38067165 0.21910276 0.080742724 -0.092569135 -0.09614708 -0.27099556 0.1885189 0.07146055 0.5854791 -0.09208919 -0.29994008 -0.123081855 0.2637448
동 0.0683065 -0.12730642 0.041259807 -0.031636138 0.027006086 -0.0957959 0.0001338367 0.1948817 -0.1267478 0.36371493 0.0075927144 -0.07822006 -0.085188314 -0.058185514 -0.24732433 -0.19358832 0.66488844 -0.11213369 0.2960822 -0.03088845 0.09459601 0.23929925 0.52472615 -0.029919403 0.28825969 0.07305988 -0.2518698 0.06515294 -0.22737701 -0.13825975 -0.033942483 -0.01549972 0.055153277 -0.16652702 -0.14394931 -0.006217668 -0.08279957 0.1270708 -0.09509359 -0.1413496 -0.21186997 -0.017693643 0.32800654 0.14295654 -0.006139096 0.101821855 0.23430918 -0.029466072 -0.102803536 0.20293409 0.08722002 0.26222843 0.2693196 0.17462412 0.31748614 -0.072394215 -0.23019207 -0.28794083 0.008428487 -0.09822464 -0.036837593 -0.0044454476 -0.33540604 0.23941445 -0.05828183 -0.10550044 0.24282864 -0.0063619944 -0.3710609 0.025706515 0.06901641 -0.17677048 0.49265292 0.1383684 -0.29626173 0.29750863 -0.04653063 -0.017876664 -0.11381203 0.22060743 -0.23344909 -0.1354017 -0.25892168 0.13894048 -0.24871406 -0.02098129 -0.29183477 0.26275858 0.06564504 0.035015795 0.40339106 -0.20325886 -0.0412199 0.10918347 0.15432599 0.4005162 -0.02635976 0.33546713 0.015835334 0.06276367 -0.26705068 -0.03980953 -0.043067686 0.13189644 0.26433125 -0.32054538 -0.23732899 -0.38853967 -0.066689506 0.043084618 -0.09301771 0.034626417 -0.27551252 -0.43464318 0.3572726 0.18695568 -0.16273013 0.113959536 0.1741159 -0.07769231 -0.153751 0.09321549 0.43150106 -0.026650593 0.099417925 0.49570653 -0.105308376 -0.211496 -0.20544326 0.15425146 -0.05303784 0.2792447 -0.1151223 0.0075436053 0.16265869 -0.09208851 -0.038761035 -0.0041475315 -0.2622324 -0.103060335 -0.21508777 -0.1291885 -0.24894328 0.017694682 -0.309646 -0.23958804 -0.02311777 -0.10302906 0.3532676 0.03399575 0.13627604 -0.42648417 -0.080250986 -0.005458131 0.054343916 0.017237479 -0.14504288 0.11012734 -0.036248997 0.24572203 -0.25175506 -0.3724147 -0.15695335 -0.24226907 0.085108444 -0.18966481 0.12008399 0.048394535 0.15029842 0.27327424 -0.23034744 0.13400173 0.1291016 0.048927248 -0.28023827 -0.25194576 -0.42450005 -0.24861121 0.1564287 0.014900634 -0.12747021 0.3340573 -0.40985468 -0.43727294 -0.18635052 -0.2025258 0.28792712 0.14315544 -0.032793548 -0.60314983 0.14575759 -0.07044003 -0.220303 -0.38486832 0.19575009 0.08667763 0.09811773 -0.2280617 0.06118924 -0.5029598 -0.26188353 0.13252705 -0.107216336 -0.3343815 0.016562985 -0.16134983 -0.4658385 -0.3206107 -0.017719144 -0.13927832 0.021472532 -0.29665637 0.17146517 0.06635056 0.07666914 -0.082899846 -0.24739209 -0.16708261 -0.16699179 -0.13204971 -0.100832626 -0.2266891 -0.44343734 -0.24448578 0.042694137 0.1538135 0.012612913 -0.12526253 -0.10561771 -0.020280635 -0.035099093 0.19019523 -0.10696177 0.09967146 -0.28736088 -0.15058328 -0.12024285 0.15235297 -0.28520507 -0.03637822 -0.035850916 0.213515 0.038755402 -0.18097201 -0.19804071 -0.3859575 -0.15044281 -0.056613795 -0.20138185 0.18587506 0.4502436 -0.045008585 0.12172112 -0.26261133 -0.23938653 -0.19718212 0.30063987 0.11031991 -0.42683476 0.16201244 0.5745723 -0.1288906 0.031316105 -0.40402496 -0.42825413 -0.2705557 -0.17829552 -0.006762063 -0.037539672 0.14726092 0.08584657 0.076991804 0.022375505 0.07999552 0.25502622 -0.031560306 0.118146986 0.07878467 -0.311566 0.17384395 0.14709774 -0.09615482 -0.33500072 -0.28224975 0.114216566 -0.06342014 -0.24478483 0.4447997 0.27009195 0.4817096 -0.107318215 0.0020497798 -0.20043886 -0.079930216 0.07675111 0.08226405 -0.071750276 -0.2955383 0.22409049 0.10152902
고 0.26685238 0.21773735 0.042966258 0.42208615 -0.11609334 -0.18164963 0.3425534 0.9660963 0.48234633 0.25852644 -0.07964001 -0.024490783 -0.09288844 -0.47014087 -0.3801016 0.010014387 -0.06170853 0.22708353 0.06409059 -0.15432145 -0.34324566 -0.19063795 0.46223998 -0.4122502 0.3003518 -0.2823722 -0.0422333 -0.007911542 0.49638417 -0.1639964 0.46310246 -0.5284703 0.117882214 0.010299037 -0.0033355458 -0.23143686 -0.21720473 -0.7160719 0.40999326 -0.25008997 -0.1339905 0.055263046 0.30145782 -0.06671305 -0.084478 -0.010326134 0.11440145 -0.070693105 -0.34181458 0.34302458 0.14412563 0.15165277 -0.15225609 0.20842381 -0.19821094 0.6201421 0.3581107 0.17389505 0.1323683 0.04941392 -0.0977257 -0.20466568 0.12348556 -0.15551984 0.20789756 0.19686805 0.27941036 -0.22632891 -0.20337707 0.088141575 -0.39847884 -0.15709022 0.14880261 0.036420695 0.10508488 -0.085638225 -0.45566297 -0.233126 -0.045361243 0.25486326 -0.13436839 -0.23850709 0.3268169 0.061981972 -0.28900608 0.29057035 -0.03867687 -0.27302024 0.37829366 -0.15402791 -0.121371135 -0.32797045 0.053044394 -0.13055904 0.046260376 -0.10859258 0.10755766 -0.08885833 -0.51047367 -0.12085644 0.0009939724 -0.120252945 -0.04287923 -0.15577638 0.08436761 -0.20168719 -0.16363053 0.111805685 -0.13166389 -0.23340325 -0.43261933 0.010408146 -0.24409881 -0.111423686 -0.15410624 0.33816004 -0.09594003 0.48656568 0.3124095 -0.067829564 0.15825382 0.20259684 0.4059514 0.23369206 0.15841113 -0.062201764 0.20161411 -0.3201316 -0.1638806 -0.13546893 -0.27566206 0.17865439 -0.08990235 -0.4646636 0.033429425 -0.08124538 -0.4216673 -0.22950359 -0.2027959 -0.30943108 0.084855966 -0.1601566 0.21429123 -0.24677107 -0.048739903 -0.16831939 -0.40929994 -0.11624578 -0.1374193 -0.38945758 0.2673159 -0.48613688 0.031437732 0.045522477 0.3864643 0.19456065 -0.50181496 -0.4719473 -0.14693901 0.48671252 0.08143574 -0.14185959 0.025999643 0.25709835 -0.4016791 0.0002870122 0.30425742 0.36658478 -0.09721758 0.29401046 0.027630953 -0.44783637 0.31917268 0.109098814 -0.18674515 -0.14826721 -0.11717298 -0.3651549 -0.3393224 0.16195646 -0.3725534 0.16729073 0.24264489 -0.18058395 -0.21043465 0.18139803 0.022993676 0.29259083 0.18490903 -0.0552636 -0.0039786454 -0.41312477 -0.116910286 0.020044765 0.29776773 0.27500352 -0.037926365 0.1781619 0.19159836 -0.1678415 -0.27299422 -0.046134308 0.07556118 0.23787259 -0.2809823 -0.2960385 -0.0011719415 0.26015162 -0.08171041 -0.44819954 -0.15781732 -0.26453605 -0.5894069 -0.2645907 0.26262408 -0.06415338 -0.17378989 -0.68968964 0.13938746 0.0633019 -0.07015559 0.39113748 -0.109266534 -0.1664078 0.19818513 0.031291153 -0.1053734 -0.34616 -0.20652542 -0.14953649 0.25348988 0.3561318 -0.2783094 0.30051982 -0.1714625 0.29324874 -0.23011447 -0.041773062 -0.1405937 -0.11349336 0.18530838 -0.09116626 -0.13806349 0.065171726 0.21723837 -0.43216768 -0.4223374 -0.063864335 -0.0057641547 0.09393913 -0.20597732 0.5001475 -0.30392158 -0.16020377 -0.301014 -0.43791366 0.3368531 -0.00561658 -0.18470284 0.24411462 0.10348817 0.10251998 -0.09299137 -0.5974517 -0.10027712 0.24422465 -0.008719292 0.08269348 0.045305483 0.30097687 0.13358597 0.040824354 0.27365777 0.269854 0.91716254 -0.0139513295 0.05242306 -0.07398958 -0.056412995 0.56487465 0.17192623 0.008551123 -0.38224444 -0.1390133 -0.18022613 -0.05549546 -0.06864686 -0.13629483 -0.067004986 0.20533201 0.044008996 0.29437807 0.053285953 0.06786267 0.18086275 0.2610019 -0.36550808 -0.034871493 0.18646853 0.08209837
상 0.16262163 0.6176432 -0.3747259 -0.21228188 0.18303293 0.058154475 0.12805699 0.5939712 -0.21665585 0.2907253 0.2380169 -0.054002196 0.23900105 -0.101738624 0.18123154 -0.07220734 -0.047846884 0.6609039 0.2778315 0.40898693 0.3470912 0.16868202 0.47777665 0.09908009 -0.13887773 0.1040379 -0.6353064 0.18680537 -0.19072449 -0.33469853 0.13434972 -0.39845926 0.08965291 -0.19342712 -0.12605904 0.05674037 0.12193803 0.283554 -0.20248753 0.47665757 -0.260074 -0.036876988 0.04494111 0.17464387 0.038879994 0.0003515432 0.27895173 -0.0172199 -0.0906289 0.17815432 0.051275074 -0.27161705 -0.30183488 0.039425272 -0.11899762 0.034194995 0.08166978 0.63073397 -0.12716217 -0.307065 0.18391387 -0.14214008 -0.32791826 0.12155262 -0.21217185 -0.07147323 0.030555796 -0.084815845 -0.33745342 -0.0061470917 0.21134466 0.1388083 0.41797602 -0.43969676 -0.016183905 0.060461596 -0.18102998 -0.2884486 -0.2778729 0.48093477 -0.11793897 -0.5473856 -0.33010763 0.06470962 0.22957116 -0.11105374 -0.29980502 0.2629463 0.043519158 0.21922062 0.6671166 -0.17954503 -0.12776402 0.21838622 0.15473385 -0.21227437 0.0077555226 -0.09958929 -0.21182533 -0.17829774 -0.0033460485 -0.2789955 -0.37101483 -0.098637216 0.2826029 0.08116899 0.021461343 0.44552195 -0.3727919 0.23847918 -0.07138254 0.112889536 0.11977699 -0.055513054 0.24271624 -0.04061656 0.40897122 -0.31382737 0.21451645 -0.3423222 -0.033829972 0.096999004 0.24075659 -0.05695852 -0.28444952 -0.50040555 -0.159698 -0.34350133 -0.44429955 0.14520772 0.2597154 0.3113655 -0.16023399 -0.2676104 0.012480614 0.35449374 -0.50235593 -0.11966053 -0.0606819 -0.007198847 -0.11464405 0.2786942 -0.15315913 -0.09795303 0.3804531 0.3419765 0.14732866 0.12110924 0.087078616 0.091384694 0.05442796 -0.50510013 0.06936189 -0.1472027 0.1274602 0.18508022 -0.30372328 -0.039117575 -0.5828116 0.295229 -0.20996043 0.23265672 -0.66950667 0.1987391 0.033361677 0.115269534 0.037960246 0.031765044 0.052515313 0.17959893 0.2403351 0.050739117 0.28683195 0.26754627 -0.6072321 0.19953124 0.2368226 -0.3105466 -0.036466844 0.16887592 -0.08487522 0.24097122 -0.3789627 -0.32899332 0.162779 -0.38127363 0.29050386 0.016161293 0.18757364 -0.3050763 0.21152897 -0.110995084 -0.43062118 0.40310654 0.046240088 0.25499165 -0.06874343 -0.54007524 -0.011539693 -0.06671003 -0.11851631 -0.3295801 0.2859254 -0.16851936 0.17613052 0.058023185 0.047331687 -0.21720803 0.14854355 0.55631995 -0.076207586 -0.31610292 0.070488654 -0.5897722 -0.08263459 -0.0027548065 -0.2572584 -0.45575932 -0.37333316 0.28120637 0.48861158 -0.2055658 0.0071217697 -0.21169716 0.08182908 -0.23698361 0.093960844 -0.049000204 -0.24617445 0.0026624338 -0.0087138815 0.4680704 0.13279094 0.23689553 -0.13033521 0.26161715 -0.24014287 -0.3922825 -0.42121756 -0.58821166 -0.39504346 -0.055001345 0.19081752 0.0034100567 -0.2695623 -0.40867168 -0.0351042 -0.14905849 -0.09624316 -0.0019100454 -0.17315705 0.13518415 0.10894532 0.10530265 -0.34353343 -0.040306382 0.39348933 0.35965523 -0.22124198 -0.41481805 0.6360246 0.34491977 0.5966119 -0.17402911 0.08885862 0.055360656 -0.29475123 -0.16329028 -0.2247289 0.23448405 -0.40976617 0.27096373 0.07427022 -0.2276248 0.077978835 -0.112826906 0.5476371 -0.25906226 -0.22672491 -0.23938015 0.19221653 -0.19470578 -0.15197961 -0.05695474 -0.05383236 -0.43210474 -0.113678545 0.36027902 0.108335815 -0.0070189224 -0.21340865 0.1850967 -0.20485963 0.381602 0.2325179 0.73791206 0.14879212 -0.25760233 0.21634386 -0.036907006
전 -0.113435455 0.8000978 -0.27054006 0.3075256 0.32055786 -0.20624834 -0.27161682 0.28156304 0.11398091 -0.16079865 -0.029025119 -0.012504042 0.023064613 0.22398846 0.27338645 0.040709198 -0.11190093 0.030277008 -0.11847605 0.013388014 -0.0004159954 -0.4845231 0.46990886 0.077218704 -0.25813505 0.044852 -0.30780384 0.31015578 -0.178459 -0.14378808 0.18872973 -0.12911433 -0.28372273 0.17247933 -0.09034916 -0.1518809 -0.36957312 0.0974636 0.03765057 0.3184261 -0.17618042 0.26090756 -0.16604665 -0.050453182 -0.28866842 0.1320582 0.20209554 0.48221174 -0.58161736 0.24514018 0.11678229 0.027190737 -0.40286928 -0.13747047 -0.18509598 0.23148967 0.078604735 -0.19191922 -0.34949258 -0.08207787 0.19565019 -0.017642856 0.1083816 0.061824758 0.21305975 -0.18176253 0.36643228 0.28707418 0.24245167 0.0941218 -0.06553319 0.014364367 0.39100233 0.06665992 0.0933661 0.49522176 -0.446732 0.12289392 0.186244 -0.03439259 0.3488935 -0.29405418 -0.18555592 0.31465977 -0.29960644 0.07446066 0.1583853 0.10129732 0.7695646 -0.044386543 0.5124425 -0.10206689 0.030512055 0.40797925 -0.30559087 0.17830093 -0.12790418 0.06713729 0.04144008 0.040267617 -0.07463576 -0.5034316 0.26103038 -0.020416882 0.076609515 -0.2956484 0.33399993 0.28052372 -0.04710752 -0.031162972 -0.20532638 0.3080019 -0.2810865 0.13377425 0.17709674 0.18494311 0.048884984 0.063746974 0.36269462 0.27239007 0.13197853 0.52481693 0.34554097 -0.18335022 0.06662453 -0.25789395 -0.18128166 -0.29692838 -0.11681447 -0.1851227 -0.11838805 -0.012478213 -0.056601442 -0.5105655 -0.063963994 0.26149377 0.10932995 -0.4378663 -0.13803048 -0.4827607 -0.3032374 -0.28246555 -0.04631133 -0.18955204 0.40813664 0.18493728 -0.10552051 -0.25209713 -0.10575996 0.18444432 0.7376131 -0.4616488 -0.11852904 0.032066625 0.22230873 -0.25276616 0.20801948 -0.23734866 -0.1186037 0.31156018 0.0797167 -0.17941134 0.014709192 0.10693442 0.13941209 0.061737716 0.20929526 -0.1585131 -0.0025944712 0.39289197 -0.38954896 -0.4874581 0.08171194 0.10342221 -0.3539962 0.19706373 -0.055645015 -0.3226399 -0.020578377 -0.1411885 -0.218574 0.43871737 -0.49665368 -0.5058772 0.021592546 -0.015055932 0.5850182 0.18758388 -0.1279635 0.05286183 0.1644076 -0.2737068 -0.36294657 -0.37919798 -0.18568589 -0.13170001 -0.21820907 -0.11081421 -0.19440505 -0.194039 0.22989415 -0.10045656 0.24768473 -0.2150122 -0.33924457 0.069919534 -0.05100759 0.41427815 -0.39129373 -0.096058436 0.36527774 -0.3044942 -0.23960224 -0.011095786 -0.4121128 -0.15537684 0.0025634656 -0.381293 -0.39538395 -0.29956353 0.81263936 -0.22019517 -0.74519575 -0.4872926 -0.062310524 -0.67045754 0.37671798 -0.15812787 0.21364574 0.057351664 0.19881208 0.24923821 0.18543813 0.0625241 0.27692297 -0.2109709 0.24414848 -0.25656885 -0.20758526 -0.6991162 0.5033255 0.013243176 -0.2551506 0.054371983 0.06956197 -0.34942666 0.29367065 0.022155883 0.24244985 0.16670276 0.17883526 -0.049691986 0.40828347 -0.2898005 -0.30812624 -0.26732144 0.13381094 0.108999945 0.030507617 0.07730438 0.39925653 -0.12901556 0.5649656 -0.5726197 -0.45109963 -0.19703801 0.21916947 0.24887918 -0.08638282 0.06338061 -0.27656963 0.06503137 -0.26037332 0.09386367 0.12604392 0.23357159 -0.17674883 -0.10959406 -0.26928133 -0.010092772 0.13963498 0.32940245 -0.59362656 -0.08187049 0.297855 0.107346974 -0.3754817 -0.24920355 -0.062970206 0.15906638 0.06018864 -0.035458006 -0.02848349 0.09687273 -0.08129085 -0.1451373 0.21349016 -0.0125304945 0.3148696 -0.21713202
해 0.11373211 0.12370964 0.47288862 0.3269762 0.093480654 0.1226172 -0.0017463506 0.84148914 -0.29412737 -0.14454225 -0.11266887 0.24608241 -0.31234276 0.055155955 -0.21295995 -0.063774906 -0.10243341 0.37592658 -0.4099587 -0.1595632 0.028074399 -0.11376021 0.4487074 -0.05251477 0.29039648 -0.09365041 -0.768441 0.27711484 0.31671807 0.21479739 -0.18044014 -0.39701682 0.43336526 -0.35012835 0.057328183 0.17640352 -0.29195523 0.30267355 0.23040242 -0.04408396 -0.34600767 -0.07226663 0.050191596 -0.0079228 -0.030548295 -0.1119168 0.21897954 -0.061407503 -0.4807755 0.35692164 0.14853531 0.004535189 -0.35308093 0.19909115 -0.09739403 0.20901269 0.07189639 -0.023894325 0.41991222 -0.3907654 -0.31207946 0.0581498 0.11985687 0.26010075 -0.30865392 0.27561274 0.5526873 0.1303855 -0.1642043 -0.24530423 0.16727252 0.17388658 0.21158679 -0.21220194 0.018200606 -0.29057685 -0.3219741 0.23960438 0.17340843 0.33695737 -0.4150438 -0.26658097 -0.20808116 0.56164753 0.08741784 0.21867135 -0.14069349 -0.12282482 0.32519698 0.27273834 0.50995624 -0.23644334 0.3936555 -0.17675635 0.2586609 0.4479067 0.022525657 -0.0066026305 -0.22469006 -0.06571602 0.11129038 -0.0338104 0.18600889 0.34479085 -0.116636656 -0.12531331 0.18990865 0.0067869234 -0.42707402 0.11217192 -0.30049267 -0.014417672 0.47622517 -0.10651503 0.19279735 0.16956241 0.40410316 0.08466018 0.40968183 -0.15769473 0.49306586 0.8367751 0.24920325 0.009423017 0.19163512 0.14809723 -0.08539529 -0.17134741 -0.11705258 0.32367364 -0.064592436 0.031958234 0.46148083 -0.3496609 0.15914725 0.26161632 -0.2088685 -0.2463768 -0.088543765 -0.67859024 -0.065312095 -0.44936523 0.28127944 0.15688194 -0.00769399 0.2378509 -0.49846613 -0.28506672 -0.10311095 -0.50500536 0.13734308 -0.5807556 -0.50483984 -0.33718202 0.331165 0.18120843 -0.3078614 -0.1475989 -0.1583349 0.062554546 0.3069758 0.049963832 -0.21222152 0.48982522 -0.19898444 0.18124259 -0.058609836 0.2936182 0.15021537 0.48009422 -0.5465525 -0.23792103 0.3167181 0.031972155 0.188027 0.20000933 0.18622567 -0.42231545 0.15615973 -0.10719017 -0.20025139 0.31898817 -0.10115103 -0.32972288 -0.34820595 -0.21270168 -0.13763231 0.060682528 0.25064886 -0.33478254 0.21620622 -0.29531327 -0.19788544 0.13464876 -0.169363 -0.04715654 0.100297116 -0.029001223 -0.061395336 -0.31060126 0.005506028 -0.059429646 0.13521852 -0.1904664 0.14940904 -0.37111577 0.020067198 0.24973343 0.10453522 -0.4905704 0.118720755 -0.2814821 -0.49789992 0.04690224 0.44302353 0.25078642 -0.3381477 -0.35126498 -0.25295487 -0.026494617 0.09896671 0.22385427 -0.22745359 -0.55889505 0.19775644 -0.06154745 -0.24582618 0.020565784 -0.18764181 -0.13423568 0.2093161 0.11301623 0.18926805 0.3833233 -0.4302856 0.097079515 0.40552422 0.19697772 0.04785951 -0.20294635 0.112258755 0.19916318 -0.03478642 -0.11053522 0.13364802 -0.0041189557 -0.4146089 0.23681706 0.0046446137 -0.056158222 -0.02863652 0.31438905 0.08238035 0.05753476 -0.6090662 0.24165775 0.6037446 0.15486693 0.20509782 0.2742159 -0.09397624 0.51035905 -0.058637217 -0.48155853 -0.18477702 0.005246615 0.13553819 0.05067432 -0.47324756 -0.04060045 -0.4082548 0.12937178 0.32135308 0.100746825 0.36098126 -0.30643055 0.60005337 -0.19694492 -0.3263132 -0.026552223 -0.06785471 0.15903413 0.17821772 0.2506598 -0.48125136 0.32075945 -0.23652892 -0.17656983 -0.22416796 -0.16528936 0.14544609 0.2692877 0.419919 0.3585658 0.014419602 0.3693639 -0.18222907 -0.0134495245 0.39352342 -0.214308
인 -0.08072539 -0.110856384 -0.47187364 0.11699144 -0.17039704 0.25084242 -0.0499748 0.48403972 0.14973754 -0.059536662 -0.4365101 -0.16456166 -0.46412656 -0.39519498 0.19941019 -0.12664147 0.22815269 0.24151696 -0.24194252 0.098858565 0.45844653 -0.11852258 -0.050603293 -0.31890476 -0.19719562 -0.14532033 0.38012892 -0.45339054 -0.15253265 0.058919977 0.0036084573 -0.45464534 0.28554562 0.047129724 -0.25622395 0.24883673 0.058900565 -0.20221412 0.23873927 0.34226334 -0.059097085 -0.10393262 0.06461693 -0.5137954 0.15445861 0.11302998 -0.03318073 0.34105855 0.0765265 -0.20261745 0.045698963 0.054968692 -0.08742498 0.073593765 -0.46140465 0.3360342 -0.1412317 -0.3022332 0.07861567 -0.11172507 -0.07478233 -0.17394261 -0.1553178 0.0567656 0.3296818 0.066524096 -0.20904922 0.02731847 -0.061449412 -0.085463814 0.18628974 0.40164608 0.5357006 -0.0015704158 -0.36281872 -0.14543927 -0.17654526 -0.2722669 -0.20102374 0.2110731 -0.04422221 -0.5517548 0.09744638 0.34093237 -0.05857117 0.05902109 -0.3384358 0.08994655 0.34599918 0.02181748 0.62692666 -0.12783901 0.28158787 0.26098907 0.24243276 0.25954637 0.45263344 0.04884447 -0.19369069 0.009167946 -0.20189768 0.14413466 -0.09270071 -0.048777256 0.19842716 -0.51423776 -0.1619046 0.2592267 -0.4633175 -0.19271518 -0.4811348 -0.5148966 0.18219244 0.18970187 0.37408158 -0.27407855 -0.1869612 -0.10050544 0.70898014 0.22339375 0.20070745 0.19123013 0.4903386 -0.09938994 -0.10018536 -0.14391789 -0.0770939 -0.33046988 0.050312623 0.71258 0.13612154 0.19467826 0.063122384 -0.28469965 0.08988087 0.03128035 -0.30744383 0.2782578 0.023884391 -0.4375243 0.19237706 0.55049354 0.08591797 0.029445287 -0.54649496 -0.23073547 0.14021528 -0.5239781 0.30080208 -0.12757428 -0.22814502 -0.5241703 0.38161883 -0.45115215 0.3398678 -0.31886706 0.14666797 0.24850866 -0.09754511 0.47112706 0.18790673 -0.09023196 0.049599275 0.31479588 -0.21495056 0.20914984 -0.058977723 -0.10778559 -0.01556915 0.28806296 -0.37628165 -0.26448587 0.5763717 -0.19990863 -0.12275396 0.0029726282 0.50892144 -0.18457612 0.15114877 -0.105888024 0.0005250347 0.63912725 -0.15961309 -0.626309 -0.7875174 -0.51832896 0.068843 0.15780021 0.28159836 -0.19366741 0.19047174 -0.06987531 -0.24062853 -0.47030655 0.3785344 0.2607989 -0.36932033 -0.29923248 0.31189403 -0.021245189 0.16861503 0.017884322 -0.13768464 -0.50263983 -0.21493615 -0.29138044 0.18264285 0.35841995 -0.22667949 -0.17162655 -0.48164785 0.16583595 -0.24326801 -0.43573704 0.052330043 0.37539715 -0.15394764 -0.17843251 -0.23027301 -0.3918777 0.09308399 -0.11327764 -0.21302235 -0.06935755 -0.034839626 0.5838245 -0.02250175 -0.16730163 -0.1356369 0.15903217 -0.023756925 -0.13816056 -0.34094766 0.4643873 0.21767084 0.11487349 -0.044958483 0.24138826 0.15339828 -0.19899637 -0.13174817 0.6004148 -0.16830173 -0.3695043 0.44006184 -0.48604307 -0.54813796 -0.2825003 0.10968111 -0.14924951 0.13818835 -0.026376659 0.16138144 -0.6087505 0.13698092 -0.74215966 0.51158994 0.1324894 -0.34909388 0.2863421 0.1326936 0.03140385 0.040735994 -0.4237971 -0.055219967 -0.26692006 0.07792479 -0.2036518 -0.26209778 -0.37296745 -0.70916504 -0.21314938 -0.84689164 -0.38649246 0.14942636 0.0882631 0.027417589 0.49130958 -0.21986344 0.11118259 -0.31527203 -0.060292665 -0.14320499 0.12899342 0.23636013 0.027318284 -0.1616943 0.06679004 -0.14819026 -0.24245901 0.2782772 0.54794717 -0.16768625 -0.050315656 0.3314693 0.078060985 -0.16354656 -0.15839884 0.17857431 0.2700402
근 -0.25597802 0.80243456 0.052406266 0.014719807 0.0025512648 0.08078305 0.2221041 0.56218964 -0.35090882 -0.45470208 0.40686 -0.56890416 -0.3965146 0.2311517 -0.01255445 0.1247505 0.3895911 0.068238854 -0.35963932 0.48799986 -0.4483863 -0.05657484 -0.059248697 0.03539725 0.15215835 0.10855812 -0.20207094 0.5338491 0.37420496 -0.2204309 0.03094067 -0.44426194 -0.04574066 0.29823267 0.03434855 0.11047441 0.40790725 -0.5021538 0.091156386 0.19000825 -0.055089418 -0.08436747 0.08179333 -0.20297971 0.12221377 -0.12179737 -0.09899535 0.16204236 -0.15833953 0.60765797 0.00047764403 -0.5076108 0.32898656 0.030744784 0.268305 0.22009663 -0.036939178 0.092412606 0.11038534 -0.16133289 -0.07122419 -0.020874515 -0.315524 -0.35441735 -0.24809383 0.67190546 0.24995638 0.2158783 0.088550515 -0.17864747 0.21882132 0.46005878 0.36538988 -0.55769944 -0.10661234 0.4262946 0.038976908 -0.46981212 -0.37535867 0.5184907 0.009067773 -0.28846473 0.04438769 0.4030503 0.1276299 0.14482571 -0.20538485 -0.5879576 -0.11385262 0.69218034 0.66821486 -0.54329634 -0.046312567 -0.1850481 0.23356655 0.18538724 0.05694012 0.05973015 0.34681368 -0.0045708152 -0.16498342 0.14592849 -0.44160256 0.4293303 0.3125675 -0.38047144 -0.067567885 0.20321387 -0.3522713 -0.113613084 -0.065348156 0.30427375 -0.12000754 -0.043648142 0.3834426 0.21550381 0.0768333 0.26324886 -0.21347907 -0.04794185 -0.40102112 -0.059918154 0.40367532 -0.13211676 -0.19019803 0.14286345 0.03539976 -0.72449064 0.058282062 0.019673377 -0.06210772 -0.111838676 -0.38688332 -0.19376728 -0.08866951 0.19695742 -0.1923288 -0.09837785 -0.12563233 -0.303513 -0.023301343 -0.11856883 -0.033665426 -0.11360863 0.2868408 -0.10457332 -0.6566287 -0.26334062 0.2986327 -0.14474937 0.5987773 -0.70610625 -0.15727289 -0.03210231 -0.2426151 0.39722747 -0.14001742 0.3166954 -0.5830778 0.3225965 0.27701887 0.39617226 -0.31744725 0.66168875 -0.055606358 -0.011040666 -0.4041793 -0.0036229647 -0.04688201 0.06129179 -0.12511091 -0.03749277 0.61013955 -0.22082609 -0.27181602 0.34994367 -0.23545101 -0.5051118 0.09686336 -0.34402442 0.1984602 0.1743166 0.018615874 0.10342827 -0.23189533 0.39524332 0.5028352 -0.3150703 -0.012573411 0.12301264 0.3858751 0.35889813 -0.2536227 0.46115142 0.39768872 -0.14289357 -0.2380801 -0.2073511 -0.22885507 0.29789913 -0.23999733 -0.41433015 0.62690526 0.12872782 0.18393074 -0.06981884 0.55051553 -0.21410826 -0.2755886 -0.035476297 -0.020109944 -0.4511156 -0.28322768 -0.483374 0.6419762 -0.22037633 -0.5072029 -0.7277971 -0.33990818 -0.35792497 0.495079 -0.009868476 -0.6779712 -0.12140731 -0.18906511 -0.15384498 -0.105185434 -0.25416124 -0.6781993 -0.3317123 -0.14793573 -0.036701906 0.14128178 0.15853573 -0.019958423 -0.21788125 -0.13356742 0.024716005 -0.63960785 -0.14510214 0.60057265 -0.17023809 0.22283398 0.5277515 -0.03436586 -0.18199387 -0.47975492 0.051056486 -0.54000396 0.44839343 -0.13855568 -0.11484031 0.51609576 -0.2814417 -0.113483265 -0.012057265 0.2790163 0.46297696 -0.35744417 -0.038931623 -0.39287063 0.37075478 0.09492871 -0.42118973 -0.4767832 -0.19157486 0.37638092 0.6057799 -0.1820993 0.20635806 -0.38835165 -0.24619831 0.29686323 -0.5028903 -0.13366455 -0.072544456 0.43129998 0.0860453 -0.3778774 -0.23058778 0.16535139 0.10876321 -0.41297466 0.48989442 -0.21493894 0.13349383 -0.35233396 0.249796 0.40130568 -0.10912165 0.27484506 -0.11609984 -0.009386706 0.22149095 0.3234265 0.5230618 0.194111 -0.12653217 0.53388804 -0.34378645
일 -0.3496009 -0.08089619 0.48059002 0.6750341 -0.08219962 0.08533431 0.055765998 0.63353586 0.28028357 0.392062 -0.063437775 -0.18453363 -0.16615012 0.08645479 -0.07242593 0.21192193 -0.0077641555 -0.103751265 0.47104254 -0.24214476 -0.058438223 0.074908614 -0.11770493 -0.0058386642 0.09280667 -0.15895708 -0.07628778 0.3726399 -0.042192902 0.07449823 0.3261965 -0.0962824 0.2593696 0.165493 0.053321004 -0.09334823 -0.060163304 0.17369792 -0.08420523 0.35422885 -0.2567225 -0.26889768 -0.031131586 0.29050654 0.11004182 0.3340397 0.17707904 -0.11240864 0.095297486 -0.15282209 0.23873553 0.26182055 -0.095998794 0.11283998 0.2269455 0.28519818 0.30933145 0.110760935 -0.11119377 -0.012410869 0.18893477 0.011774516 -0.10113813 0.46017668 0.2505839 0.03544795 0.12660193 0.14145093 -0.12474526 -0.046627566 0.0559415 -0.12646101 0.26125854 -0.20280197 0.18358201 0.27746442 -0.26386324 0.020962644 0.45035127 -0.029578922 0.108288184 -0.072473586 -0.42601347 0.20338993 0.16387533 0.21895696 -0.06538885 -0.027334914 0.5358804 0.25036138 0.45062208 -0.37409708 -0.2927945 0.100158416 -0.036819328 0.18261448 -0.24499384 -0.12375923 -0.22429387 -0.15277798 0.44848514 -0.096785516 0.15526798 -0.22709118 0.08255273 -0.020111753 0.16119288 -0.12508452 -0.18245043 0.12007685 -0.58502907 -0.19850183 0.03570545 0.024843868 -0.025500458 0.15564568 0.030732423 -0.11006475 0.11853256 -0.32169533 0.2674017 0.34806204 0.33426222 -0.2729786 0.0117383525 -0.056027472 -0.50733197 -0.4838368 -0.2635005 0.27726534 0.07925798 0.51946336 -0.054116357 0.060850658 0.51767635 0.23655853 -0.11997797 0.09897269 -0.60198665 -0.23803551 -0.1090795 -0.25932986 -0.25204232 0.24631974 -0.04740343 -0.04621903 0.18856578 -0.113339275 0.28187734 0.0017230021 -0.01999174 -0.52690434 0.062124126 -0.32342514 -0.27499786 0.24208906 -0.26976353 -0.19058862 -0.56790406 0.26382536 0.258151 0.1265287 -0.05640245 0.19514708 0.043943085 0.20734653 -0.17976576 0.004579829 -0.2231428 0.15327622 -0.17913054 0.23960006 0.15442799 0.1912972 0.1994936 0.039295495 0.050864153 -0.22898735 0.21502167 0.40065444 -0.22719964 -0.02296541 -0.15001075 -0.29810292 -0.20719033 -0.2789714 0.24768259 0.23647752 0.28962964 -0.15301777 0.12110886 -0.23580813 -0.023554383 -0.026712358 -0.27843854 -0.16025783 -0.061365187 0.13686813 0.038440574 -0.34153494 0.09192416 0.16674271 -0.38188493 -0.5274118 -0.018576497 0.027957467 -0.13302137 0.5696089 0.011873161 -0.31789145 -0.42983204 -0.006283381 -0.22447489 0.32973072 0.23778546 0.0033293522 -0.23390289 -0.05358864 0.09935662 -0.37066606 0.20399193 0.010640959 -0.06613319 0.043208297 0.28240255 -0.054203797 -0.10927978 -0.096739195 0.17170528 0.18008645 0.023820903 0.03266449 0.036073245 0.15934233 -0.13986051 0.37106818 0.0002603508 0.07610635 -0.0049956613 -0.36201423 0.044998877 -0.15858825 0.15833458 0.11561507 0.20700775 0.017485166 -0.19396573 -0.47093546 -0.4676379 -0.014244579 -0.15186596 0.43263444 0.34504592 0.120099306 -0.17209804 -0.2628826 0.317208 0.015351166 -0.33088973 -0.15967134 0.27468854 0.22812323 -0.13922262 -0.327661 0.19924453 0.18834586 0.33835623 -0.043790504 -0.42924976 -0.15816389 -0.84959173 0.17022955 0.04034744 -0.06028691 0.008355611 -0.08689323 0.40553546 -0.21777475 -0.3892866 -0.14255078 0.37487483 -0.018783757 -0.19247252 0.13746797 0.46913695 0.19442196 0.13503297 -0.22523338 -0.26020887 0.08776918 -0.34344 0.07912447 0.16176626 0.36895025 0.56083304 0.31361878 0.25156987 -0.21264511 0.062332347 0.2815194
정 0.06982621 0.62027603 -0.25158644 -0.12112755 -0.07970066 -0.42259365 0.015645016 0.09726027 -0.30223498 -0.116090186 -0.17306432 -0.21628033 0.44843686 0.14246877 -0.088127546 -0.17301235 0.09677271 0.012086784 0.04968307 0.27760157 -0.0650971 -0.38843676 0.27970785 -0.5521026 -0.1308868 0.02277583 -0.11762018 0.06957966 -0.2371873 -0.12603575 0.17796184 -0.17318545 0.5163195 0.18330342 -0.33102444 0.07656846 0.34101936 0.08773163 0.18071431 0.23462108 -0.051363368 -0.008505162 -0.043277595 -0.28319672 -0.1436063 0.029866656 0.17821723 -0.5665364 0.114596285 0.27227178 0.038704425 0.22152038 -0.114735395 0.2840577 0.048092756 0.13058175 0.097868495 -0.099155754 0.26169178 -0.32402235 -0.085438155 0.41831568 -0.2620925 0.27410188 -0.14480132 -0.24770427 0.2540822 -0.604104 -0.042300124 0.09973388 0.20961593 -0.082731076 -0.0806177 0.19278109 0.08050639 -0.13755134 -0.39685822 -0.06447273 0.20622893 0.44598186 -0.037478853 0.11406748 0.24443042 0.58607113 0.01620934 0.011706101 -0.2872985 0.39342606 0.41765714 0.13565037 -0.11175779 -0.33125722 -0.39279336 0.40229285 0.027924467 0.11436196 0.15444788 0.12795414 -0.21043429 0.3092931 0.08733633 -0.1870324 -0.34343717 -0.31720096 -0.09540343 -0.14103761 0.006821962 0.32533526 -0.501913 0.0048130658 0.02179609 -0.14116016 0.30250436 0.05015884 0.23274973 0.27947438 0.11716349 -0.12854086 0.10178261 -0.14996119 -0.07859953 0.051336586 -0.050877955 -0.16704011 -0.11502658 -0.035425227 0.1211605 -0.50152016 -0.086025134 -0.01826275 -0.07812995 0.5110227 -0.2079427 -0.16510373 -0.06934682 0.36912712 -0.46126094 -0.23317 -0.31782874 -0.5393158 -0.272012 0.06093082 0.19595778 -0.047306206 -0.19489247 -0.10287912 0.27279162 -0.19256009 -0.28009033 0.036951836 0.115715176 -0.5228007 -0.48700893 0.13380638 -0.14130858 -0.026921129 0.06577562 0.30061457 -0.006071759 0.67640734 -0.16037524 -0.19820413 -0.48345095 -0.11543395 -0.24189402 0.5196621 0.11687978 -0.26105052 0.32994834 0.15804109 -0.32043526 -0.10433358 -0.08182228 -0.10630071 0.48068988 -0.28508565 -0.1019282 -0.12850784 -0.023720436 0.034255225 0.05850096 0.4878894 0.062343776 -0.39176977 -0.35269105 -0.070118755 0.23918943 0.12301645 0.09648625 -0.23951344 0.091207564 -0.030141514 -0.48783436 0.08187343 -0.21280193 -0.18866172 0.20170124 -0.3885901 0.0726631 -0.100370735 0.046521433 0.25098124 0.1697481 0.12951607 -0.18609333 -0.33555707 -0.023518287 0.2852598 0.14439665 -0.07380399 -0.06398594 -0.50515586 -0.3515572 0.13384387 -0.3397915 -0.058584932 -0.32322443 -0.9357171 -0.40064687 0.27573335 0.021577258 -0.30223292 -0.42457777 -0.114498824 -0.24710517 0.049135387 -0.6464944 -0.076395944 -0.33656448 0.3245973 -0.12820685 -0.29702908 0.13337088 0.393706 -0.23198184 0.21864049 0.529308 -0.060701847 -0.07625374 -0.065904655 -0.16264464 -0.12433196 -0.109221585 -0.24263714 -0.15898617 -0.4319478 -0.123042144 -0.045771793 0.19474481 0.21197164 0.26173517 -0.13682346 0.4273755 -0.12971121 -0.3898189 -0.512245 0.48136526 -0.07374779 -0.6377333 -0.3550914 0.17265244 -0.017040804 0.10041806 -0.29872167 -0.02881528 0.09821455 0.450147 0.3005757 0.04046534 0.12920037 -0.030184997 0.09354482 -0.31298983 0.17524573 0.44232044 0.0452037 -0.021542808 0.24689353 0.09859955 -0.11363146 0.23944499 0.22534868 -0.41351533 -0.16492058 -0.20905153 -0.14355153 0.04566021 -0.2073651 -0.16361576 0.44665825 0.16443478 0.23997235 -0.20069106 -0.19450982 0.21964847 0.48105276 -0.05272449 -0.17161784 -0.12284864 0.3331932
치 -0.28932568 0.40827605 -0.12976924 0.19144882 0.17802516 0.007165068 0.012235357 0.06437887 -0.6597168 -0.46698886 -0.1282337 -0.29506984 -0.03882045 -0.029964313 0.06839723 -0.27250922 0.33810243 -0.13233958 0.16137525 0.197273 -0.5109685 0.19313313 0.07271293 0.05350147 0.17888053 -0.01723019 -0.5362757 0.05769703 0.4269435 -0.11926328 0.27149463 -0.07103135 -0.22418186 0.12964661 0.1750704 0.5549037 -0.042291693 -0.111563854 0.09636995 -0.55846924 -0.22084548 0.56031024 -0.5313737 -0.72011507 -0.049263895 0.2385051 -0.21005107 0.15374018 -0.44996944 0.11809032 -0.05144681 0.06798125 0.37020153 -0.31922755 0.3336666 -0.20231381 -0.26010308 -0.09803754 -0.11123983 0.098583326 0.066661015 -0.39064217 0.2616976 0.08993646 -0.1475145 -0.111674055 0.31364742 -0.0860138 0.14394404 -0.28773504 0.0427482 0.41268733 0.19004986 0.34691876 -0.26515916 0.5697619 -0.0975874 -0.030837571 0.64275384 -0.0149841085 0.037000906 -0.31100315 -0.12969357 0.46342176 0.26433167 0.045550216 0.03706719 0.26250523 0.1446863 0.28321427 0.15299037 -0.20158477 0.67218983 0.129302 -0.41668287 0.08157911 0.09249436 0.3471146 0.44411874 0.17060842 0.02803227 -0.1122281 -0.2347737 -0.26468638 0.44093227 -0.09493387 0.31692556 -0.33055314 -0.3602105 0.3882395 0.36123523 -0.019627074 0.12732895 0.19224423 0.0589428 0.5536188 0.22457103 -0.029948175 -0.08637579 -0.118209735 -0.04437459 0.4803153 -0.46286383 -0.40268895 -0.029309953 0.45975813 -0.013312677 -0.39924246 0.015598841 -0.16481802 0.6146623 -0.06922246 0.31087005 -0.37413853 0.069184504 0.49783024 0.07011879 -0.3102782 -0.17567289 -0.40981737 0.5339876 -0.12465034 -0.07328169 0.077652596 0.2834644 0.15344667 -0.36664128 0.2740332 -0.10238677 -0.2257347 0.35030422 -0.37310666 0.042379413 0.46281162 -0.44434237 0.4766598 -0.008454893 0.45195183 -0.30590367 0.048489723 -0.18242796 -0.0043698885 -0.34301457 0.42443272 0.2719068 0.54214966 -0.1148399 -0.40076393 0.21420828 0.47452533 -0.3809303 0.04431708 -0.17814144 -0.018081779 0.055648647 -0.1341571 0.06054927 -0.14849365 0.5710189 0.23345858 -0.35758573 -0.16815749 -0.40240788 -0.2106922 -0.6017493 -0.14554435 -0.027997918 -0.106636584 0.15301329 0.15271825 -0.39264548 0.29784635 -0.39540663 -0.04701857 -0.12563156 -0.15367766 -0.17597532 -0.007111878 0.019399203 0.459331 -0.48867565 0.18074188 0.10668746 -0.32752666 0.18376856 0.10701692 0.07121052 -0.14724636 -0.30675328 -0.23718493 -0.12337009 -0.0818062 -0.065191835 -0.16801815 0.34135494 -0.03862104 0.044446472 -0.2701485 -0.27044743 -0.21034619 0.53944814 0.060220413 -0.58965594 -0.17612274 -0.47652495 -0.1266448 0.22782487 -0.36884636 -0.35155728 0.05953414 0.062587775 -0.26309273 -0.03771101 -0.04297246 -0.046475556 -0.119019255 -0.0676387 0.026215466 0.16344032 -0.17981249 0.26784828 -0.2150582 -0.08919499 0.22635874 0.08469195 -0.21138628 0.18628518 0.36953357 -0.49853486 0.29654187 0.62960064 -0.15128885 0.35972276 -0.3951408 -0.40762505 -0.18452036 -0.07093888 0.13710059 -0.22245842 -0.48733225 -0.5646552 0.5109779 -0.094428316 -0.46076185 0.27090082 0.36068675 0.5251102 0.83852947 -0.009525677 0.35693657 -0.1758653 0.086621195 -0.12303763 -0.40718138 0.48523766 0.066735275 -0.2507539 0.2687129 -0.25008672 -0.093637705 -0.113761924 -0.2609703 -0.26322547 0.085386984 -0.33091217 0.25775108 -0.13975477 -0.19009669 0.24111074 0.3479643 -0.20931014 0.516421 -0.03398318 -0.56602865 0.10193091 -0.13766934 -0.0392817 0.09320352 0.1844416 0.030676661
설 0.16264783 0.26272467 -0.2908591 0.03402483 -0.12161121 -0.16305953 0.41455597 0.13155863 0.17918237 0.14922279 -0.48132035 -0.15250447 -0.106863484 0.08360109 -0.15130028 0.3477095 0.12408007 0.2708207 -0.08430263 -0.40442026 -0.37288556 0.1753648 -0.1321804 -0.079445794 0.21201837 0.20333216 -0.42970812 0.054265123 0.03422062 -0.37278405 -0.06705353 0.36615393 -0.18032348 -0.001661786 -0.11676959 0.08273758 0.22532389 0.03274682 -0.024905656 0.00037172204 -0.3089163 -0.13621111 0.3052263 -0.03547415 0.4286912 0.14024158 -0.13068528 0.122698456 0.084420234 0.1886343 -0.11598469 -0.08616926 0.1460111 0.30810076 -0.34768286 0.3684143 0.1476376 0.41623545 -0.07048955 -0.10903499 -0.037214037 -0.3909473 -0.22639345 0.024788897 0.42329705 0.12419652 0.47750625 -0.15582569 -0.048726913 -0.36027512 0.2741302 0.1986829 0.4587451 -0.12740433 -0.15758851 0.44401753 -0.37717503 0.0055190115 0.037642978 -0.05949099 0.012478469 -0.16794509 0.17637815 0.27031457 0.21131186 -0.29449597 0.11373374 0.27393362 0.15856732 0.057136074 0.46870932 0.18007833 -0.33045104 0.05890201 -0.0014653222 0.06524963 0.13619149 -0.24936195 0.2202335 0.27904013 -0.05361501 -0.08809332 0.36632362 0.04016249 0.3163549 -0.06046371 -0.1688755 0.043262787 -0.19062178 0.22018673 -0.31063002 0.4444631 -0.2299129 -0.041256443 0.36750415 0.19691901 -0.004596238 0.14216517 0.52690923 -0.07557107 -0.18578598 0.6840996 0.24783279 0.046380483 -0.018922739 -0.10677116 0.24149711 -0.8806079 -0.18697375 0.34327015 -0.26951247 0.023346815 0.32753062 -0.2242491 -0.32596427 0.20470247 -0.5717596 -0.3736783 -0.19174157 -0.49954593 0.29253277 -0.46351793 0.29288372 0.057896543 -0.03323491 -0.08230392 -0.6125564 -0.049447555 -0.40859216 -0.43080658 0.38439134 -0.18250605 -0.15546675 -0.047313504 0.17155182 -0.13490905 -0.4655729 0.25245106 -0.112364605 -0.020839455 0.21611942 0.045280475 -0.35581502 0.0151176825 -0.046759274 -0.121416 -0.04765762 0.04671262 -0.43300882 0.258036 0.11113393 0.25150287 -0.31558058 0.15092805 0.32244948 0.12408208 -0.0782104 0.095248275 -0.48413292 -0.08217361 0.12796718 0.23955604 -0.17896724 -0.46814403 -0.034497175 -0.34367707 0.16486612 0.44251812 0.23406006 -0.116651915 0.15867226 0.200703 -0.18101549 0.20333499 0.33400282 0.16854665 0.2906094 -0.1055727 0.15368068 -0.49786842 -0.15462977 -0.0015695281 -0.08095348 -0.25883 0.17456906 0.1489873 0.31593004 0.5230059 0.22437426 -0.047267437 -0.09323392 -0.060715277 -0.5914868 -0.19324821 -0.07881767 0.25559795 -0.48315573 -0.6028319 0.112473786 0.056124628 -0.029573385 -0.099702924 -0.32816336 -0.02038602 -0.015858343 -0.015940059 -0.120844804 -0.16328634 -0.45546022 0.14011867 0.13677366 -0.0017125024 0.2985241 0.30874035 -0.058360457 0.43415454 0.32943875 -0.32389638 0.08454498 -0.3555254 -0.21669117 -0.083577335 -0.15568969 0.15361607 0.47633648 -0.15298034 0.2256859 -0.0066617494 0.021353321 0.04773758 -0.12154174 0.37596038 0.09286543 0.031704556 -0.48255482 -0.45012474 0.6082405 0.06376214 -0.15161282 -0.0009287815 0.104272336 0.24911314 -0.057075426 -0.1993405 -0.52861655 0.039578404 0.21499838 0.1613051 0.0690742 0.33674553 -0.20385645 -0.1320752 -0.3715275 0.081818156 0.009312482 0.0879269 0.041025907 0.041833356 -0.30170625 0.17561 0.69375384 0.39749444 0.19297028 0.094691336 0.089685865 0.07361731 0.01913851 0.14435844 0.010850987 0.342715 0.22380142 0.011103585 -0.33654782 -0.17400248 0.15464556 0.13452186 -0.28179902 -0.33432654 0.3650784 0.06406488
손 -0.473839 0.40837884 0.23719944 0.26396072 0.591923 -0.04600238 0.08290338 0.44780323 0.31267878 -0.3482707 -0.15895517 0.19589287 -0.18919654 0.23873226 -0.48061535 -0.23282178 0.04353786 0.28868738 -0.04946086 -0.520937 -0.33341056 0.018450728 0.15316308 -0.12012686 0.29012233 -0.5721555 -0.2346333 0.15166807 -0.03048023 -0.1781167 -0.12915874 0.08489986 -0.39412788 0.12671751 0.013314988 0.27323732 0.41341808 -0.30218515 0.21326151 0.26267976 -0.25114715 0.38926232 0.3604698 -0.12213865 0.54497856 0.42532286 -0.092695646 0.36060447 0.25458267 0.30792934 0.41869342 0.30269173 0.3356713 0.17695108 0.36576357 0.060777705 0.41213468 -0.31204626 0.36306277 -0.081864126 -0.3351861 0.42261508 0.13049425 0.21128123 -0.60716814 -0.20068723 -0.18775584 0.4130785 -0.2413179 0.09153126 -0.4394216 0.069675736 0.21165326 0.36169657 0.033479717 0.078320965 -0.80513763 0.2331737 -0.37651387 0.34026465 0.19011587 -0.36508057 -0.2875633 0.24865502 0.30020526 0.78120583 -0.06256647 -0.31500804 0.70373166 0.47628978 0.5062787 0.030204374 -0.18738061 0.21745297 0.21174787 0.22396557 0.08284163 -0.40419358 0.008453589 -0.37700188 0.14240895 -0.29256895 -0.25713173 -0.5646415 -0.09885085 0.16010882 -0.37287423 -0.190133 0.026038382 0.21927746 0.04165897 -0.045093264 -0.010091429 -0.14343978 0.19289242 -0.41824198 -0.21903147 0.53288686 0.10549582 -0.35962677 0.1313635 0.16609126 0.2948816 0.50015295 0.19126698 -0.19389404 0.15642977 -0.7197376 -0.1617316 -0.20112604 0.24164325 0.4977955 0.13259411 -0.35166118 -0.10939416 0.7139045 -0.12904756 0.13461195 -0.27289763 -0.5818923 -0.030223483 -0.034515895 -0.043006163 0.04398168 0.229356 -0.11078184 -0.53644216 -0.2846623 0.09640734 -0.53039193 -0.18465409 -0.25315842 -0.16399243 -0.062592715 -0.3358656 -0.11167097 -0.36915544 -0.47536054 -0.42603177 0.6251344 0.24181205 0.3348175 -0.17107975 -0.13016663 0.15124515 -0.13588768 0.3881507 -0.4078398 -0.25845262 0.33799958 -0.17282252 -0.040660482 -0.29515612 0.0029697656 0.21974793 -0.021686826 -0.25858918 -0.31235734 0.042914804 -0.25874478 0.47233814 -0.23701091 -1.2269263 -0.51061565 -0.3219929 -0.09692362 0.49933803 0.105394974 0.15610808 -0.24846892 0.17000201 -0.101948835 -0.11538961 0.17688924 0.10337975 0.12433074 -0.0023614457 -0.27659053 -0.19928074 -0.4382738 -0.27599987 0.2704331 -0.1572448 -0.19208936 0.08304053 -0.26058352 -0.48948455 0.12266869 0.08928142 -0.4250933 -0.022660112 0.201185 0.20747757 -0.1390584 -0.09674938 -0.5407608 -0.39937654 -0.88696456 -0.5026485 -0.11291137 0.060143434 0.16508412 -0.5974018 -0.21658432 -0.001149653 0.17444755 -0.39221832 -0.26018664 0.007046053 0.38212207 -0.16616412 -0.07196577 -0.06561931 0.39535046 -0.26360908 0.16024004 -0.11246762 0.06975667 -0.17413075 0.20877516 -0.038227443 -0.022287717 0.42260635 -0.12371193 -0.2643905 -0.3421762 -0.18257803 -0.36610103 0.042090904 -0.3276256 0.31097555 -0.34306294 -0.0070393845 0.29389653 0.43726248 -0.15938169 0.31183118 -0.017807033 -0.4590121 0.0011894227 -0.36150742 -0.14428696 0.022627516 -0.62037224 -0.7042874 -0.17625007 -0.039023478 -0.061881132 -0.11963727 -0.2946376 -0.65099406 0.16508922 -0.6163614 -0.26383463 0.31679943 -0.0032415811 0.11704752 0.037098844 -0.64396966 -0.07774547 0.19457369 0.24444738 -0.44533667 0.34813184 -0.056284286 0.49029213 -0.7415535 0.16527586 -0.063986115 0.21735242 -0.22736278 0.40009177 0.06568657 -0.0845257 0.4747185 0.30831608 0.3324606 -0.117068246 0.36619255 -0.1897777
공 0.08861477 0.23159494 -0.43547377 -0.10932647 0.30474076 -0.23419134 0.16758804 0.34033468 0.18447576 -0.22569525 -0.06842394 -0.22896892 -0.27340326 -0.0544124 -0.3714522 -0.017829867 0.17790478 0.06471936 0.30975938 -0.037244238 -0.41193154 -0.36544687 -0.114340045 -0.42886522 0.19074112 -0.1845666 -0.12600487 -0.011843415 -0.19495812 -0.44478586 -0.045727465 -0.10683238 0.12527609 -0.096492365 -0.15970711 0.38683894 -0.21527699 -0.3183921 -0.02290842 0.29964808 0.049721453 0.13794968 0.036750875 -0.3166641 0.12339648 -0.07126508 -0.12969719 -0.2565864 -0.12708156 0.19557215 -0.08599015 -0.090686776 0.37189758 0.13379255 -0.023956303 0.39178935 0.042572774 -0.14224628 0.34963718 0.24457712 0.20878038 -0.23117793 0.008386072 0.0061031347 0.008257046 0.30235225 0.30246186 -0.0004741886 -0.01930924 0.03967371 -0.2147937 -0.10429284 0.39443585 -0.20801105 -0.16660675 0.19848005 -0.22268257 -0.479133 -0.16987853 0.45432884 -0.004636291 -0.51597625 0.1277152 0.06954027 0.13443175 0.12069877 -0.016117524 -0.33839846 0.36586908 0.15816657 0.074047536 -0.14133944 0.1731104 0.25821567 -0.14764981 -0.06468898 0.48824558 -0.4582603 -0.009711032 0.018372599 -0.086736105 0.03640557 0.1863633 -0.023121098 0.026611775 -0.19454917 -0.20508139 0.09070593 -0.09900733 -0.065513566 -0.1565809 -0.29607856 -0.1385413 0.33660674 0.2723528 0.14029364 -0.32935926 0.05709505 0.016222674 -0.18266594 -0.034322083 0.25908107 0.36192653 0.071070254 0.11872077 0.14381146 0.5024745 -0.62256324 0.015338053 0.005688758 -0.032645095 -0.14022797 0.27335563 0.031318318 -0.024819376 -0.28168172 -0.14467232 -0.19069251 -0.5073717 -0.2967466 -0.120636895 -0.44356507 -0.05354761 -0.11974062 -0.003958099 -0.22021627 -0.109692566 -0.29759908 0.007424164 -0.23373115 0.15928848 -0.5738611 -0.12940583 -0.25954252 0.17227156 0.02044168 0.0506744 0.18284306 -0.3420233 0.2500553 -0.1180856 -0.08046399 -0.3000973 0.33289152 -0.0986706 0.12108087 -0.15048023 0.24877197 0.06566684 0.43488994 -0.10446709 -0.1573525 -0.21174894 0.07368216 0.03147255 0.2923753 0.31925592 0.039726473 -0.31726325 0.029735303 0.07599123 -0.09065063 -0.116281256 -0.057817925 -0.30622914 0.34445482 0.1640376 0.58793104 0.39298576 -0.11709924 0.0978916 0.45636493 -0.1484522 0.38392943 0.09697575 0.008966841 0.05845999 0.19069321 0.031341344 -0.08914201 -0.15771809 -0.1384205 -0.13908586 -0.18992646 0.008515895 -0.005417735 0.32927084 0.45607704 0.5178935 -0.18702078 0.033594057 0.11871943 -0.14104357 -0.19605069 0.2768799 0.49439457 0.009145802 -0.51381075 0.15454505 -0.15334271 0.00029303317 -0.097291805 -0.48974276 -0.13684615 -0.36090395 -0.11269524 0.04705753 -0.5952453 -0.23956585 0.060482666 0.097337 -0.31100696 -0.21143684 0.40747982 -0.16649172 -0.06135794 0.19662695 0.073475786 -0.25183117 -0.12520416 0.34263915 -0.25488198 -0.11184703 0.031724624 -0.12286867 0.11098994 0.20150326 -0.28896004 0.07708129 0.36364534 -0.20900194 0.23656015 -0.021757511 0.3296138 0.20719947 -0.42168775 0.034399875 -0.40159795 -0.38233122 0.024090143 0.2723884 -0.1301789 0.21755838 -0.21305628 -0.10471259 -0.06748025 0.36207628 0.0883855 -0.008761307 0.23410012 -0.09891672 0.20492432 -0.08662489 -0.39926577 0.3586362 0.013905118 -0.2524336 0.2677333 -0.005486545 -0.45224643 0.17961144 -0.26010075 -0.17038654 0.16488464 -0.024703177 0.41695085 -0.2892826 0.0869256 0.26982334 0.31002715 0.27305052 0.3116386 -0.1811315 0.32935286 0.22941132 0.3324277 0.009333866 0.019841505 -0.12073321 0.098818384
기 0.32139742 0.18736629 0.007782683 -0.010763438 0.20916909 0.03401404 0.030879403 0.4366606 0.3566072 0.19015293 -0.07733304 -0.3418861 0.024680896 0.014665554 -0.46135944 0.22091512 -0.02435567 -0.023618214 -0.005595145 -0.36969295 0.15799528 -0.096569546 -0.041928887 -0.14892183 -0.23762627 0.53854024 0.074453324 -0.1813593 0.23218691 0.10867033 0.3308126 -0.13608706 -0.1402808 -0.22202219 -0.08707431 0.41981593 -0.15896334 -0.15782753 0.3626373 0.36235902 0.26565257 0.072128825 -0.2468702 -0.16031794 0.45440227 0.1803318 0.3172626 -0.19227974 0.40140855 -0.10645743 0.24710658 -0.35386753 -0.016363395 0.46028942 -0.19874638 0.35691607 -0.5636475 -0.2470282 -0.12991685 -0.08995968 -0.2649514 -0.12582886 -0.20268996 0.03298483 0.010446346 0.27521244 -0.055859722 0.09854945 -0.006613344 0.013805915 -0.225324 -0.10973903 0.3909423 -0.32796502 -0.511671 0.14551303 -0.3790287 -0.24346311 -0.52989185 0.076633364 0.21505563 -0.38576365 0.16807066 0.16833678 -0.19555795 -0.419102 -0.28955296 0.20794953 0.21721622 -0.118184544 0.2888278 0.14763848 0.16924787 0.25071654 0.43827322 0.17719437 0.06646349 -0.08830497 -0.19439626 -0.1021657 -0.077754945 -0.077656984 -0.04407455 0.35623696 -0.25059628 0.0017069806 -0.124774225 -0.46294203 0.09952616 0.10720156 -0.19229886 -0.16412061 -0.016132593 0.113564156 -0.31627968 0.12678891 -0.5453985 0.00085869234 0.44071588 -0.17633837 -0.38117176 0.16587478 0.19901459 0.10559419 -0.2574331 0.1512282 0.5899992 -0.0562511 0.016632348 0.13820034 0.21704528 0.39250442 -0.11696077 0.3840208 -0.22805707 0.08439102 -0.25732437 -0.34610045 -0.04384561 0.086000405 0.43999177 -0.6504794 0.18191801 -0.15580824 -0.012568207 -0.15118095 0.17849036 -0.06207611 0.29161164 -0.092952155 -0.008766466 -0.051322673 0.277764 -0.22425991 0.11558077 -0.048672114 0.009028131 -0.15027128 -0.12888096 0.19781195 0.34937683 0.4530872 -0.10476472 0.3700868 -0.12910707 -0.6003905 -0.053189967 -0.1387138 -0.6190732 0.23308124 0.46032202 -0.19218978 0.17173523 0.10401428 0.11153272 0.33002126 -0.24751192 -0.012196551 0.2842926 -0.0865106 0.03652373 0.1847151 -0.3839439 0.19180612 -0.025458587 0.009370143 0.48654228 -0.1318531 -0.043275654 -0.38453716 -0.0040713055 0.28435788 -0.20750022 0.20787838 0.075809434 0.2956447 -0.0055294205 -0.24073447 0.33480766 -0.27042744 -0.13989934 0.05183403 0.28707567 0.0141186705 -0.08648451 -0.017438699 -0.13320449 0.09449725 -0.34749314 -0.080019064 -0.15701705 -0.2512213 0.00031760582 -0.088359475 0.15930383 0.09486262 -0.27234158 -0.112874515 0.09989446 0.10826443 -0.025993852 -0.18860307 -0.096435 -0.17048366 -0.1279115 0.110722385 0.29397225 -0.15486978 -0.26590347 -0.054730512 -0.15053305 -0.17651013 -0.26217812 0.56291425 0.38210607 0.06428636 0.26850387 -0.5982165 -0.49211964 -0.22986904 0.03265144 0.3233113 -0.08894371 -0.18986176 0.02134252 -0.12091633 -0.22446103 0.32763523 0.06361871 0.14291315 0.10690032 0.022263046 0.5264852 -0.17395328 0.10208736 -0.107395045 0.34870273 0.0067095035 -0.30690703 -0.06784003 -0.049665418 -0.059869453 0.17190762 -0.4624742 -0.20389564 -0.54340506 -0.02000508 0.06594738 -0.13902746 0.16888162 -0.16390732 -0.48386434 0.04639827 -0.02647385 -0.19996488 0.23816781 -0.13567604 0.18660015 0.15144831 -0.4428863 0.19121872 -0.16375451 -0.13307883 0.40793103 0.17768614 0.20617525 -0.281363 -0.24602549 0.09405392 0.12447643 -0.033964735 0.32334575 0.19491665 0.3579167 0.20865054 0.2557934 -0.21511799 -0.3012309 0.05261164 0.09130422
가 0.015133655 0.30115286 -0.40683046 0.070430376 -0.24565339 0.045196343 0.011200322 0.45889604 0.13927336 -0.1776511 -0.22085403 -0.35115737 0.41466835 0.10744021 0.054262742 -0.39990905 0.09385679 -0.031378288 0.36847264 -0.25734636 -0.058826376 -0.23492041 -0.23892847 0.17886408 0.04767204 -0.109561995 -0.55908376 0.003657229 0.06907252 -0.11924314 -0.05847944 0.23111416 -0.28762785 0.55829597 0.25744945 0.03312126 0.06413021 -0.17405938 0.11040138 -0.2237378 -0.032727655 0.085638404 -0.14316434 0.45090923 -0.03911915 0.34116277 -0.1361617 0.38502878 0.24892472 0.14785592 0.31693265 0.4058481 0.3666678 0.090277046 -0.40181762 0.1677304 0.25029582 0.19694097 -0.41965365 0.12939696 -0.21341524 -0.051775217 -0.08050916 -0.43195254 -0.36822075 -0.120680645 0.09312772 -0.015066204 -0.18185663 -0.21374059 -0.24196349 0.33720574 0.08265047 -0.030714767 -0.2148289 -0.08575063 0.007853759 0.10754827 -0.5105031 0.26908246 0.2566327 0.18006545 0.34171978 0.17481609 -0.10684947 0.2985753 -0.027562823 0.15685673 0.3033591 0.20125136 0.28296262 0.171805 -0.11717374 0.30144686 -0.0030788037 0.115984544 0.4663991 0.06537505 0.09886221 -0.046601333 -0.21932341 -0.45768282 -0.2294906 -0.08187033 0.23996638 0.13423008 -0.14064033 -0.14758752 -0.26593032 -0.278691 -0.113235995 -0.1186901 -0.07610705 0.3115024 0.07608892 0.11498731 0.07853617 0.047261048 0.03301752 -0.19281992 0.60640484 -0.1283551 -0.23688956 0.3903194 0.02471689 -0.15364213 0.5271281 -0.18397631 -0.013349468 -0.38813597 -0.071048014 0.47726977 -0.32673106 -0.3312504 -0.078530304 0.43442705 0.14146402 -0.18162192 -0.30597174 -0.15694912 0.26757494 -0.23427688 0.27273718 0.057480007 -0.025594562 -0.04812556 -0.29777446 0.14738128 0.14370716 -0.31149036 0.2395971 -0.2108971 0.076231055 0.08722452 -0.18618447 -0.05606931 -0.22327727 -0.0413839 -0.48651323 0.5530366 0.0018190355 0.34745026 -0.1939853 -0.22472359 -0.23375443 -0.18555565 0.13541618 0.039684463 -0.08291624 0.5827876 -0.17877956 0.28227943 -0.002813591 0.066238195 0.22577877 -0.114893384 -0.0096698105 -0.16159283 0.25080624 -0.05175069 0.29820934 -0.005767612 -0.14081927 -0.3878006 -0.013289249 -0.3150202 0.22844972 0.17774849 0.5056172 0.2893118 0.076068796 0.24828637 -0.39781803 0.3109026 -0.05329313 -0.192355 0.23595646 -0.106408976 0.5627673 -0.094358556 0.07599349 0.23403856 0.28835016 -0.17177102 0.35928717 -0.039461143 -0.071263365 -0.058911186 0.021204868 -0.1263629 -0.1283994 -0.34260002 0.05193246 -0.058381304 -0.21644585 -0.39447063 0.052076284 -0.52343255 -0.42193672 0.100010276 0.39489436 0.18905495 -0.37503213 -0.37558603 -0.1886666 -0.029786475 -0.03160598 -0.47664812 -0.25544345 -0.13710164 0.48228493 -0.10824735 -0.41749582 -0.3521953 -0.1577945 0.23671281 -0.2949222 -0.19607808 0.21057491 -0.45894614 -0.07080571 0.065727256 0.18204911 0.056046385 -0.07516738 -0.5871991 -0.21329837 0.028491782 0.13324654 0.3506098 0.26639047 -0.33695278 0.5009778 -0.14410402 0.14663982 0.0194317 0.014284719 0.05530311 -0.39203498 -0.12730922 -0.18421389 0.50969535 0.27969047 -0.454147 -0.2625422 0.23078528 -0.29495865 0.19929315 -0.010014877 -0.044058394 0.09172856 0.43628153 -0.0024080346 0.06705753 0.43628147 0.121664815 -0.0038612187 0.5673634 -0.38743845 -0.34061566 0.030823039 0.05348429 -0.27195737 -0.05932127 -0.25538853 0.061695077 -0.102199234 -0.08842693 0.0044101616 0.11348639 0.14928563 0.45697305 0.015312264 -0.43448567 -0.11500861 0.32686645 0.029764932 0.45327422 -0.11583172 0.16947415
